784 128 10
6.350335e-03 -6.672303e-03 3.234623e-02 5.298256e-03 -2.705539e-02 1.826331e-02 6.586195e-02 4.783481e-02 -3.554400e-02 -6.391344e-02 -3.148011e-02 2.087277e-03 -1.179313e-01 -1.221535e-02 -6.300699e-02 -3.698838e-02 -2.748923e-02 -1.597557e-02 2.079048e-02 5.265488e-02 -6.491981e-03 6.901683e-02 -3.359740e-02 1.775394e-02 4.563214e-02 4.748338e-03 -3.755238e-02 -4.655416e-02 -2.311865e-02 1.112153e-02 -5.099342e-02 -1.056496e-02 -8.043288e-03 2.727986e-02 6.741478e-03 9.810254e-03 -4.107690e-02 -9.357037e-03 3.540669e-02 6.791681e-02 -7.589028e-02 6.799989e-02 6.620597e-02 3.370463e-02 4.956042e-03 -2.092350e-02 7.017082e-02 9.336372e-02 8.661551e-02 6.228940e-02 1.521634e-02 -6.160608e-02 -2.249677e-04 3.315699e-02 -6.507208e-02 1.995668e-02 2.171140e-02 3.515547e-02 -5.980780e-02 -3.374852e-02 -2.226483e-02 -5.926219e-02 8.339636e-02 -3.797949e-02 -3.830812e-04 -3.182385e-02 4.965840e-02 3.138250e-02 -5.977741e-03 -1.419421e-01 -1.943458e-02 1.071512e-02 2.382530e-02 -4.873947e-02 8.447104e-02 -7.133141e-02 -3.912937e-02 3.649818e-02 -6.397739e-03 9.700507e-02 9.245531e-03 -3.192900e-02 -1.906984e-02 -5.511120e-02 -6.453259e-02 3.184059e-02 2.934426e-02 6.440195e-02 -3.857401e-02 8.382153e-02 -2.701976e-02 6.782765e-02 -4.735505e-02 -9.298107e-02 -4.675339e-02 -1.040978e-02 -4.416317e-02 -7.956356e-02 -1.114965e-01 -1.160332e-01 -3.205269e-02 2.254819e-02 -3.992952e-03 -3.336290e-02 5.427091e-02 -6.466959e-02 -3.741109e-02 2.427467e-02 -1.139264e-01 1.949538e-02 -2.939418e-02 5.519458e-03 -3.823504e-03 1.020905e-02 3.504131e-02 -3.756539e-02 7.214852e-02 2.872708e-02 2.684642e-02 2.829755e-02 -2.444102e-02 -4.902592e-02 -7.899809e-02 -1.375201e-01 -6.907925e-02 -1.092603e-01 -1.244365e-01 -5.153653e-02 -8.510792e-02 -3.151836e-02 -1.924338e-02 1.418749e-02 9.614663e-05 6.769726e-02 5.620180e-03 5.801140e-02 7.880921e-02 6.284800e-02 -1.172697e-01 6.200234e-02 1.715340e-02 2.140369e-02 1.878095e-02 2.133944e-02 1.519202e-02 -1.671882e-02 -1.043976e-01 -3.155217e-02 -9.700842e-02 -2.789569e-03 -7.265409e-02 2.731994e-03 -3.986181e-02 -6.755789e-02 -4.494818e-02 -1.618178e-01 -2.007177e-02 8.876056e-03 -8.440780e-02 -1.692398e-01 7.755826e-03 -4.154473e-02 -5.361858e-02 -2.370459e-02 8.630750e-02 -2.400739e-03 5.002527e-03 -7.504850e-02 8.320319e-02 4.634421e-02 5.542236e-02 5.205914e-03 5.283376e-02 3.512905e-02 4.557661e-02 -1.098345e-02 -6.889391e-02 7.733574e-02 -9.056199e-02 8.739454e-03 3.694161e-02 -1.199039e-03 5.820644e-02 -1.217312e-02 -2.453143e-02 3.271771e-02 -5.383825e-02 4.200894e-02 1.730938e-02 -4.384540e-02 -1.361331e-01 -6.737672e-02 5.606172e-02 4.659024e-04 -9.553470e-03 8.357327e-02 -6.478376e-02 -2.941296e-02 -2.384658e-02 3.541072e-02 -1.825816e-02 -7.109332e-04 -5.328384e-02 5.960126e-02 1.121298e-01 1.092419e-02 3.329697e-02 -4.628341e-03 6.635758e-02 1.632446e-01 5.512077e-02 1.796279e-01 1.232970e-02 6.058559e-02 -2.576780e-02 1.006259e-02 -2.294226e-02 -7.068872e-02 -7.874692e-02 1.584157e-01 1.314113e-02 -8.907321e-02 -1.993379e-02 3.447646e-02 -2.618767e-02 6.773147e-02 5.243118e-02 -6.433532e-03 -1.054761e-02 -2.326103e-02 -1.344794e-02 -5.140527e-02 9.791701e-02 1.195218e-01 -2.482830e-02 1.912293e-02 -1.520701e-02 -3.598922e-02 -1.113578e-01 2.990351e-02 1.564471e-01 3.488236e-02 7.366020e-02 -2.828923e-02 8.745888e-02 2.318763e-02 2.160217e-02 1.603733e-01 3.367502e-02 -2.892150e-02 2.140533e-02 -1.369720e-03 5.381550e-02 -4.774099e-02 3.852294e-02 3.817430e-02 -3.052119e-02 3.827841e-02 -1.198949e-02 1.345261e-01 1.758731e-02 5.380112e-02 2.977480e-03 5.687213e-02 4.919431e-02 2.436165e-02 -1.575840e-03 6.314996e-02 2.455508e-02 1.478914e-02 1.372800e-01 3.323285e-02 -2.363669e-02 -1.845522e-02 2.820380e-02 7.217730e-02 3.619271e-02 -1.070592e-02 -5.641733e-02 7.066279e-02 2.274881e-02 -2.052854e-02 -2.043533e-02 -2.517468e-02 -1.344806e-01 1.913261e-02 -2.398204e-02 -2.224505e-02 3.615600e-02 1.012036e-01 -1.168206e-03 -7.410622e-02 -1.628794e-02 -5.710083e-02 -1.078834e-01 2.362948e-02 -9.026267e-03 -1.628021e-02 -1.271045e-01 -1.209299e-02 7.130980e-02 6.567141e-02 9.919789e-02 -1.268639e-01 5.730544e-02 2.594083e-02 -1.334231e-03 -3.148803e-02 2.742662e-03 1.755226e-02 -2.464397e-02 -2.600041e-02 8.314952e-02 -2.449029e-02 9.891686e-02 4.230999e-02 4.685960e-02 6.947635e-02 -3.257160e-04 2.929935e-02 -5.806168e-02 -1.447953e-01 -1.482086e-01 -8.716626e-03 5.738597e-02 -1.485677e-02 -6.590470e-02 -5.208311e-02 3.122146e-02 3.353382e-02 8.675140e-02 -4.319418e-02 6.237264e-02 4.567436e-03 2.886936e-02 -1.694853e-02 1.613538e-02 -5.613303e-02 5.188152e-02 -9.634828e-02 -3.817732e-02 7.013990e-02 1.337099e-01 5.714113e-02 4.771486e-02 -2.136660e-02 1.137448e-01 1.606398e-02 6.715530e-02 2.306453e-02 -1.238699e-01 8.933361e-02 -1.597428e-02 -6.420911e-02 3.661391e-02 1.084129e-02 2.088007e-02 5.799328e-02 8.044375e-02 7.203605e-02 -7.753101e-02 1.055557e-01 5.466632e-02 -2.032249e-02 -4.136069e-02 -4.990013e-02 1.281320e-03 -3.951340e-02 -2.672258e-02 9.603703e-02 7.657706e-02 6.431417e-02 1.183493e-01 1.459808e-01 8.365169e-02 9.574385e-02 1.254262e-01 9.260567e-02 5.133031e-03 5.737234e-02 -7.707098e-02 -8.281850e-02 -5.894848e-02 -8.637472e-03 -1.149415e-02 1.114950e-03 -3.471093e-02 -5.394452e-02 -8.192094e-02 6.660026e-03 3.805565e-02 -2.660802e-02 -1.050106e-02 -2.976421e-02 2.382440e-02 2.474962e-03 9.470396e-02 -3.690666e-02 6.207391e-02 1.048964e-01 1.156379e-01 1.683430e-01 6.578167e-02 1.782041e-01 4.979304e-03 9.123643e-02 -1.231883e-02 1.063841e-01 -1.792259e-02 2.974463e-02 -3.300609e-02 2.668493e-02 -1.104045e-02 -1.397410e-01 -4.376232e-02 -1.780408e-02 -4.710079e-02 1.529874e-02 4.572523e-02 -7.657320e-03 -7.525305e-02 7.011575e-02 5.453603e-02 -1.336288e-02 1.146456e-01 -8.094338e-04 -8.905124e-03 6.588318e-02 1.813379e-01 9.056043e-02 2.505438e-01 6.758233e-02 1.333472e-01 7.909622e-02 7.813481e-02 1.463250e-01 -5.696026e-02 8.974314e-02 -2.091842e-02 -5.812215e-02 1.868932e-02 8.646371e-02 8.777620e-02 1.048331e-01 3.180353e-02 3.674600e-02 -2.726945e-02 4.616162e-03 2.841245e-02 -7.043842e-04 1.648497e-02 2.263654e-02 2.213897e-02 -1.544876e-02 5.501766e-04 -3.402400e-03 3.018403e-02 1.657613e-01 1.049059e-01 1.523968e-01 1.018112e-01 4.926810e-02 1.461992e-02 1.125195e-01 2.072996e-02 5.189501e-02 1.266117e-02 -1.494946e-02 -1.719514e-02 3.076944e-02 -6.968359e-02 -2.917665e-02 -2.330369e-02 4.599474e-02 1.744760e-03 6.995438e-02 -1.988520e-02 -1.270294e-02 -1.952733e-01 2.997433e-02 7.921058e-03 6.130615e-02 -4.173975e-02 2.826991e-02 -2.873933e-02 -5.118429e-02 -3.891634e-02 1.386938e-02 1.207439e-01 1.070824e-01 1.501595e-02 3.067097e-02 2.491183e-02 1.336583e-02 9.066813e-02 -1.153272e-01 -2.384858e-02 7.551983e-02 -3.423512e-02 1.484954e-02 2.323856e-02 -1.901010e-02 -8.845544e-02 -3.888389e-02 6.204633e-02 1.507887e-02 1.400036e-03 2.781239e-02 2.583406e-02 -7.012033e-02 -5.378142e-02 -3.320743e-02 -9.219770e-02 -1.068031e-01 -5.410970e-03 -6.864984e-02 8.318757e-02 1.064676e-01 -1.000279e-01 -3.542147e-02 4.417645e-02 -4.122996e-02 -6.450992e-02 -3.935866e-02 4.032070e-02 9.182241e-03 1.023273e-01 2.781753e-04 -4.539412e-02 4.193286e-02 2.964962e-02 1.744143e-02 -1.672945e-02 9.079680e-02 4.254745e-02 -6.477483e-03 -9.390227e-02 -2.072079e-02 -1.188883e-01 -1.455120e-01 -9.724405e-02 -9.654224e-02 -5.639285e-02 -1.141274e-01 -6.264304e-02 -1.282873e-01 -6.597534e-02 -4.081720e-02 4.849543e-02 3.634260e-03 2.399696e-02 -3.292645e-02 3.395987e-02 6.725846e-02 -6.336620e-02 -5.097682e-03 -3.448916e-02 -1.083427e-01 4.687876e-02 -1.861356e-02 -4.305220e-02 -1.915625e-02 8.294383e-03 7.952814e-02 -1.927808e-02 -1.462503e-02 2.398946e-02 -5.015316e-02 -3.385736e-02 -1.019910e-01 -6.806067e-02 -1.193484e-01 -8.550243e-02 -9.068861e-02 -6.660796e-02 4.464636e-02 -5.586564e-03 -2.052304e-02 -2.852250e-02 -1.634344e-02 1.142126e-01 -1.877214e-03 2.738136e-02 2.946440e-02 -1.382868e-02 -4.154101e-02 -4.454122e-02 2.145808e-02 -5.204791e-02 3.267154e-02 -7.631375e-02 -2.460932e-02 1.429169e-03 -9.143460e-02 5.873247e-03 -5.000324e-02 -1.298597e-01 -1.855278e-01 -1.715029e-01 -4.651163e-02 -1.363146e-01 -1.450903e-01 -6.358901e-02 9.690146e-02 2.893428e-03 -3.923165e-03 -2.145258e-02 5.040871e-02 -4.410453e-02 2.855633e-02 3.672230e-02 1.171862e-02 -5.539075e-03 -3.129134e-02 -1.526759e-02 -3.910317e-02 -1.223218e-01 -6.033022e-02 2.391359e-02 8.151694e-02 9.675047e-02 -1.563833e-02 1.173206e-02 1.000752e-02 -8.003329e-02 -1.461904e-01 -4.524912e-02 -8.894744e-02 -5.507183e-02 -4.631402e-02 -1.177550e-01 -5.187766e-02 2.212070e-02 -1.901235e-02 2.743732e-02 4.605282e-02 9.924250e-02 3.859200e-02 9.971594e-02 2.448557e-02 -1.757820e-02 2.037254e-02 -2.803173e-02 -2.894791e-02 -3.069554e-02 -1.159364e-01 6.833576e-03 -5.125089e-02 1.421371e-02 8.168454e-02 -2.133889e-02 -1.034970e-02 9.012225e-02 3.698502e-03 7.926045e-02 1.313800e-02 -1.965814e-02 -2.973715e-02 -2.647042e-02 1.663489e-02 -5.182265e-02 -4.909980e-03 1.136912e-01 -8.814129e-02 -1.774874e-02 8.174707e-02 1.412959e-02 8.092542e-02 -4.488735e-02 2.231677e-02 -6.032886e-03 7.089792e-03 1.672388e-02 -6.161963e-02 -5.251613e-02 8.259562e-02 3.463025e-02 2.737270e-02 4.369465e-02 8.172415e-02 -7.186077e-03 -1.621721e-02 1.332575e-01 7.723774e-02 6.256274e-02 1.363986e-02 1.154400e-01 3.880794e-02 6.533075e-02 4.619017e-02 -2.246144e-02 -6.613554e-02 -1.881480e-02 1.110672e-01 9.040976e-02 -1.785359e-03 -1.724181e-02 5.048005e-02 -8.689544e-03 -6.562253e-02 6.391958e-02 2.410116e-02 -1.267995e-01 -1.623459e-02 1.057558e-02 4.434746e-02 3.721570e-02 7.657318e-03 3.370402e-02 5.859261e-02 7.480950e-02 4.698217e-02 1.175887e-01 5.522775e-03 -4.531715e-03 -7.398940e-02 7.000902e-02 6.843183e-02 5.897350e-02 7.935919e-02 4.886978e-02 3.520504e-02 3.455076e-02 -6.249898e-03 6.155450e-02 -1.774572e-02 -7.403819e-02 4.292055e-02 9.347461e-02 -4.849495e-02 -5.133147e-03 -3.457290e-02 -1.682150e-02 1.241217e-02 -4.989195e-02 -8.492971e-03 -7.330800e-02 -2.851469e-02 -4.393908e-02 -2.755016e-02 -5.876112e-02 7.748229e-02 3.599132e-02 -9.480279e-02 -2.697414e-02 -2.760220e-02 -3.734328e-02 -7.862956e-02 4.105170e-02 -1.878878e-02 2.297108e-02 2.668783e-02 6.945260e-02 -9.166515e-02 8.781267e-02 6.408485e-02 2.894420e-02 1.203896e-01 1.035298e-02 4.149095e-02 -3.730633e-02 5.726756e-02 8.424616e-03 -2.307062e-02 1.065041e-01 -1.577462e-02 -1.994582e-03 -9.885232e-03 -3.724003e-02 2.518273e-02 3.566619e-02 1.822830e-02 -1.216537e-01 4.708046e-02 -2.194568e-02 -6.473536e-02 2.878614e-02 2.586085e-02 -5.409500e-02 1.248334e-01 -6.109537e-02 -8.752985e-02 -5.829446e-02 7.176123e-02 -8.882106e-03 -1.879170e-02 -3.139439e-03 -3.013355e-02 -3.486357e-02 -3.238627e-02 3.575715e-02 5.154081e-02 -5.329022e-02 1.208284e-02 3.981048e-02 -5.463672e-02 -2.548332e-02 -5.256922e-02 -6.511817e-02 5.148544e-03 -3.718030e-02 3.187683e-02 -1.486031e-03 2.084083e-02 -1.476252e-02 -3.207221e-02 -4.579685e-03 -2.523427e-04 -3.565109e-02 2.154632e-02 3.770873e-02 7.984382e-03 8.654436e-02 -3.193794e-02 2.629409e-02 -2.064422e-02 1.184802e-02 -4.192782e-02 5.612038e-02 8.405087e-03 5.968063e-02 -6.455660e-02 -2.600024e-02 -4.725575e-02 -3.066046e-02 -3.777072e-02 -8.858889e-03 -7.363867e-03 -5.609716e-03 -3.112499e-02 7.113475e-03 4.196334e-02 -4.773464e-02 -2.618585e-03 -4.668771e-03 2.357498e-02 -3.225346e-03 -7.911921e-04 -5.005790e-02 1.096209e-03 -4.656220e-02 2.604700e-02 -5.213410e-03 1.672034e-03 -4.523675e-02 4.060446e-02 3.525537e-02 4.327991e-02 1.144134e-01 6.026910e-03 6.763606e-02 5.031529e-04 2.690585e-02 1.488152e-02 1.850463e-02 3.444424e-02 -1.423590e-02 -2.056558e-04 1.262666e-02 6.779912e-02 -4.926671e-02 -9.699224e-02 -3.043204e-02 2.201267e-03 9.815707e-03 5.512871e-03 5.973992e-02 4.929796e-02 -2.488405e-03 -2.371571e-02 -1.751813e-02 -1.897934e-02 -1.199020e-02 -7.363873e-02 -1.644996e-02 -7.168092e-03 1.299460e-02 2.312286e-02 8.183624e-02 4.538567e-02 2.563392e-02 4.857613e-02 1.195778e-02 5.170034e-02 6.786192e-02 2.827358e-02 3.942759e-03 -4.171178e-02 -7.705156e-03 -1.822736e-02 -3.875906e-02 -7.731989e-03 -6.000542e-02 -4.998686e-02 -9.555374e-02 -3.434172e-02 6.745523e-02 -2.810599e-02 3.968349e-02 1.015770e-04 -3.314002e-02 8.495690e-02 6.285423e-02 -4.184323e-02 1.187288e-01 2.120940e-02 8.094000e-02 1.202993e-01 6.598376e-02 1.069808e-01 9.122125e-02 -5.171174e-02 4.349203e-02 4.252633e-02 -4.417173e-02 -5.513760e-02 -8.151236e-03 -5.393210e-02 -9.319417e-02 -2.892178e-02 -4.130749e-02 -6.105192e-02 -5.480429e-02 1.523672e-02 -1.419957e-03 2.743478e-04 -5.761043e-02 -4.891128e-03 -3.512082e-02 -4.029155e-02 7.769095e-03 -3.207156e-02 2.751690e-02 8.882970e-02 2.308346e-02 1.302652e-02 7.471278e-02 -3.916420e-02 -4.932786e-03 2.770703e-02 5.595634e-02 -2.771880e-02 3.367914e-02 1.131803e-01 9.936152e-02 -4.010385e-02 -7.866606e-02 -2.964568e-02 -1.608788e-01 -1.868208e-02 -1.203160e-02 -2.273349e-02 -7.999768e-02 -1.237823e-02 -3.970511e-02 4.660018e-02 -2.343432e-02 -2.671373e-02 -8.321103e-03 4.994556e-02 -1.375366e-01 3.469912e-02 9.521502e-02 2.629628e-02 -7.338428e-03 7.050170e-02 5.247826e-02 2.762847e-02 -3.772098e-02 -1.635854e-02 -6.139264e-03 -3.345421e-02 -1.079302e-01 -6.430547e-02 -4.830322e-02 -5.198947e-02 -3.198885e-02 6.066945e-03 4.112547e-02 1.125490e-01 3.695992e-02 -7.047203e-02 -1.358146e-01 3.534780e-03 6.835034e-02 -2.062437e-02 2.158395e-02 -4.261570e-02 6.422711e-02 -1.944094e-02 1.059126e-02 -2.050096e-02 6.817496e-02 8.053856e-02 -2.999318e-03 1.262314e-01 -5.436501e-02 -1.087265e-02 -5.716256e-02 1.839203e-02 4.553566e-02 2.159117e-02 -1.518813e-03 -4.360037e-02 -8.911539e-02 -2.061574e-02 -5.407210e-02 1.046966e-02 -2.909827e-02 -4.388866e-03 -6.524762e-03 1.145018e-03 6.381032e-02 1.282203e-03 -3.620985e-02 -2.941505e-02 2.907703e-02 -2.217825e-02 5.781202e-02 1.292742e-01 -2.462469e-03 1.400137e-01 -3.846787e-02 -8.482733e-02 -2.287758e-02 7.938199e-02 -1.657958e-02 9.595935e-02 6.961741e-02 -3.251428e-02 4.077410e-02 -4.936262e-02 -9.670071e-02 -1.130547e-02 3.008610e-02 -4.516646e-02 1.896299e-02 4.697690e-03 -7.053335e-02 7.642742e-02 7.695754e-02 1.221841e-02 -4.360565e-03 5.061885e-02 -1.514412e-02 -7.914137e-02 7.562181e-02 1.986914e-02 1.471054e-01 7.485716e-02 -8.064252e-03 1.263618e-01 2.657284e-02 6.434008e-03 7.466945e-02 1.160135e-01 -1.935485e-02 1.477645e-03 6.720986e-02 -1.625213e-01 -1.245611e-01 9.504950e-03 -3.384546e-02 -9.390235e-02 9.695982e-02 -7.468584e-02 -4.626982e-02 -2.397231e-02 1.517005e-02 2.365804e-02 3.117599e-02 2.876505e-02 4.347941e-03 -8.164474e-03 -3.510771e-02 9.562447e-02 4.132586e-02 -6.975930e-02 7.842732e-02 -1.198297e-01 -4.726740e-04 5.456344e-04 1.195055e-02 3.239962e-02 -7.250347e-02 -1.326635e-02 -9.292586e-03 6.292550e-02 -7.527462e-02 3.219243e-03 7.727962e-02 7.831078e-02 2.946711e-02 1.665548e-02 1.190878e-01 9.866366e-02 -1.722553e-02 9.256002e-02 3.830436e-02 6.167180e-03 1.967054e-02 3.173792e-02 8.898026e-02 4.381763e-02 6.298207e-02 3.683685e-02 -2.257104e-02 -6.499989e-03 1.805151e-02 5.557905e-02 4.642313e-02 5.095339e-02 1.856785e-02 -8.577242e-02 -2.051849e-02 -5.629578e-02 -4.720595e-02 3.809647e-02 -2.628819e-03 2.379575e-02 -3.175711e-02 5.641977e-02 -1.174611e-02 3.641247e-02 3.420108e-02 3.194862e-02 -4.211399e-02 -2.988224e-02 -4.533333e-02 9.275377e-03 -3.103081e-02 2.471947e-02 -9.301738e-03 3.256446e-02 -4.124031e-02 -1.360641e-02 -2.546436e-02 4.936025e-02 -6.333471e-02 1.250701e-02 -3.181997e-02 -6.815753e-03 -1.164871e-01 5.487991e-02 8.793003e-02 -5.768282e-03 -6.493413e-02 -3.404202e-02 4.786995e-02 2.916478e-02 -2.704943e-02 3.023840e-02 -9.109492e-02 -6.079311e-02 -1.209055e-02 -6.092604e-02 -3.945522e-02 -1.400056e-01 -1.033013e-02 -1.683278e-02 -6.799991e-02 1.374714e-01 5.252328e-02 4.279600e-02 1.036164e-01 4.866820e-03 3.899442e-02 6.616249e-02 5.589790e-02 7.414963e-02 1.809152e-02 -3.877187e-02 1.143656e-01 -2.458265e-02 1.951602e-03 -3.923642e-02 -5.343127e-03 5.349543e-02 5.831290e-02 1.974330e-02 -6.610948e-02 -8.962169e-02 -3.613997e-02 2.427682e-02 -5.396139e-02 2.883541e-02 -4.395378e-02 -1.875136e-02 6.328562e-02 6.099450e-02 1.902104e-01 1.574293e-03 8.901428e-02 -6.328204e-03 -7.135447e-02 2.846529e-02 3.259407e-02 2.075098e-02 -3.243759e-02 -1.330062e-01 -8.803698e-02 5.942848e-02 9.053312e-02 -1.786755e-02 -6.412516e-02 -7.722988e-02 -3.520806e-02 8.864675e-02 -1.121958e-02 -7.445249e-02 -2.785015e-02 -3.430339e-02 4.279062e-02 -3.093565e-02 -9.358583e-02 -3.123731e-02 1.975226e-02 1.494121e-01 1.875141e-01 5.567966e-02 6.843887e-02 -2.335190e-02 -5.076725e-02 -7.539323e-03 1.698643e-02 -4.141168e-02 -3.780190e-02 -8.102351e-03 -1.182615e-03 1.192612e-01 -2.017930e-02 6.110082e-02 4.589751e-02 -1.508676e-01 3.721917e-05 1.028638e-01 5.892386e-02 -3.070356e-02 1.391424e-02 -4.624796e-02 -2.780459e-02 -5.037999e-02 -2.362261e-02 7.103726e-02 5.755190e-02 8.918130e-02 9.500596e-02 1.434746e-01 8.630995e-02 -4.060380e-02 9.211318e-02 3.072390e-02 1.000437e-02 -5.639959e-03 -4.249969e-03 6.444956e-02 -1.011210e-02 3.302792e-02 8.180554e-02 -5.222928e-02 -7.168305e-02 2.760524e-02 -9.164585e-02 7.816395e-04 1.142184e-02 -8.958657e-02 -3.673954e-02 7.438929e-02 4.500110e-02 -4.642232e-02 4.041145e-03 6.728787e-02 6.224155e-03 1.179634e-01 1.064847e-01 -3.204260e-02 1.510671e-02 -1.958392e-02 -5.399782e-02 1.074522e-01 1.337946e-03 3.079394e-02 -6.606554e-03 -6.793026e-02 2.213049e-02 1.504664e-02 7.699769e-03 3.473810e-02 4.108165e-02 3.634348e-02 1.169035e-01 1.100366e-01 6.038619e-04 -4.248144e-02 1.619395e-01 -9.401068e-03 -3.165477e-02 5.843673e-02 8.349858e-02 8.231800e-03 9.661626e-02 2.185019e-02 -3.640905e-02 -3.960101e-02 -4.774796e-03 1.172483e-02 4.256658e-02 1.574420e-01 2.537353e-02 4.479352e-02 2.233280e-02 2.623237e-02 9.332185e-02 -1.749654e-02 -6.212727e-04 -5.090973e-02 4.396698e-03 3.957699e-03 4.115758e-02 9.416959e-02 7.052889e-02 9.513851e-02 7.913169e-02 4.134396e-02 -1.186257e-02 -1.151312e-01 4.338226e-02 -3.113902e-02 -9.117532e-02 5.141386e-02 5.406565e-02 -5.276645e-02 9.093966e-02 8.805009e-02 6.440386e-02 4.946896e-02 8.020834e-02 1.432868e-02 1.885147e-01 2.455062e-02 -4.029073e-02 7.626465e-02 5.016442e-02 6.752477e-02 5.283002e-02 1.740097e-02 -6.422389e-02 1.898009e-02 5.544056e-02 2.331401e-02 -7.113329e-02 1.395997e-01 7.730418e-02 3.314529e-02 -8.664398e-02 -4.349570e-03 -1.382728e-01 4.850995e-02 -6.442874e-02 5.245878e-02 9.226446e-02 9.357348e-02 9.100950e-02 -2.390007e-02 1.066933e-01 1.073508e-01 9.777402e-02 1.152681e-01 3.707359e-02 1.085172e-01 3.664157e-02 -1.967036e-02 8.232497e-02 -1.577009e-02 2.452339e-02 4.726179e-02 -8.144510e-02 -2.948471e-03 4.199314e-02 5.374530e-02 1.731969e-02 -8.796554e-02 -3.010721e-02 7.989720e-02 -2.150580e-02 3.583739e-03 1.622838e-02 1.067683e-01 -1.358322e-02 1.460347e-01 1.030955e-01 1.988468e-01 1.163258e-01 4.573513e-02 1.417131e-02 1.354641e-01 7.445869e-02 -6.139370e-02 3.478661e-02 -4.044601e-02 -3.920491e-02 -8.127650e-02 5.415485e-02 3.512488e-02 4.779086e-02 5.988365e-02 1.217010e-02 1.118984e-02 1.554901e-02 -6.311033e-02 3.417230e-02 2.171698e-02 -4.646428e-02 7.653663e-03 4.219561e-02 8.175908e-02 -4.960952e-02 7.070274e-02 1.014375e-01 9.580880e-02 1.243017e-01 1.188864e-01 3.442885e-02 5.943160e-02 5.505456e-02 -2.982570e-02 9.621015e-02 -1.186710e-02 -3.201477e-02 1.496940e-02 -8.700073e-03 -5.264035e-02 7.911189e-03 6.064487e-02 3.171281e-02 -6.617648e-02 5.624873e-02 -1.505806e-02 2.040931e-03 7.565517e-02 1.396144e-02 1.722393e-02 -6.678787e-02 -3.097051e-02 1.977590e-02 6.799350e-02 1.812777e-01 1.488241e-01 1.689752e-01 -1.576952e-02 1.241388e-01 -1.595241e-02 6.671609e-02 1.541945e-02 2.990575e-02 -2.732088e-02 1.427605e-02 -9.430848e-02 5.724138e-02 -9.981567e-03 -1.329207e-01 1.111099e-02 5.819920e-02 -4.424803e-02 6.427965e-02 -4.975074e-02 -1.071371e-01 -1.523609e-03 3.479330e-03 1.378026e-02 5.703435e-02 7.586643e-02 9.633187e-02 5.034459e-02 6.934214e-02 6.497678e-02 4.348644e-02 3.552446e-02 -2.196507e-02 -9.532290e-03 1.339491e-02 2.144838e-02 -2.952150e-03 -9.276226e-03 2.699379e-02 4.113688e-02 3.491094e-02 -9.206741e-02 -4.078859e-02 3.430049e-02 5.534696e-02 7.664999e-02 5.799754e-02 -2.596694e-02 1.350258e-01 -2.553989e-02 8.456715e-02 3.944674e-02 -3.278306e-02 4.308155e-03 7.511391e-02 -6.126097e-03 -3.858995e-02 3.277058e-04 -2.268598e-02 -6.565957e-02 9.767330e-03 3.202186e-02 -3.267085e-02 2.671421e-02 -1.921990e-02 -5.036324e-03 6.232763e-03 7.542221e-02 2.563559e-02 -5.040949e-02 3.063542e-02 8.678865e-03 -1.092376e-03 -3.255675e-02 2.231324e-03 -9.854953e-03 -5.109634e-03 -5.010724e-02 -6.917230e-02 -6.101362e-03 3.968087e-03 8.270700e-02 -3.032502e-02 4.439424e-02 5.122958e-02 -2.841917e-02 5.345740e-04 -1.755681e-02 8.860196e-02 -7.558118e-02 -1.952641e-03 6.989807e-02 -5.438664e-03 -2.883670e-02 1.176235e-02 2.661691e-02 2.866020e-02 1.422514e-02 3.785263e-02 4.760227e-02 -5.592942e-02 -1.780372e-02 4.494555e-02 2.424697e-02 4.247607e-03 3.397392e-02 5.112356e-02 -4.621039e-02 -6.252290e-02 -5.550278e-02 8.898757e-02 -6.089152e-02 -1.786458e-02 -1.350848e-02 5.037445e-02 -8.986927e-02 -3.218418e-03 6.100318e-02 5.631094e-02 2.067338e-02 -1.317941e-02 8.877642e-02 -8.444608e-02 4.954724e-02 2.566686e-02 2.985186e-02 1.342537e-02 1.036316e-02 4.701189e-02 -5.823756e-02 -6.296038e-02 8.205127e-03 2.634013e-03 8.266086e-03 8.032833e-02 -2.927390e-02 3.793297e-02 1.941694e-02 1.195295e-01 -7.082112e-02 -2.757752e-02 -2.307138e-02 6.670052e-02 -4.141214e-02 8.373877e-02 8.071666e-02 4.372004e-02 2.209083e-02 -7.859887e-02 9.199939e-03 -7.225983e-02 -1.831540e-02 1.025814e-02 -1.560036e-02 4.802294e-02 -6.524381e-03 -7.799290e-02 -5.321195e-02 -6.357868e-02 -1.572857e-02 6.349568e-02 2.593349e-02 1.781343e-02 -6.425802e-02 1.172436e-01 -3.492496e-03 1.235045e-01 -4.267138e-02 -2.715656e-02 1.323574e-01 -5.333279e-02 2.314915e-02 -1.643904e-02 -4.104127e-02 1.091510e-01 -5.071628e-02 4.532731e-02 5.577621e-02 -5.110369e-02 -9.582435e-02 -8.993590e-02 -4.027925e-02 1.135392e-02 1.694576e-02 -9.360609e-03 -4.074738e-03 5.163393e-02 4.166617e-02 2.176450e-02 -3.116511e-02 3.756224e-02 7.203962e-03 -3.774348e-02 -3.035721e-02 6.138487e-02 9.695819e-02 -2.064872e-02 -9.942545e-02 3.557259e-02 -3.911813e-02 4.154350e-02 -1.761083e-02 1.123490e-01 5.245271e-03 4.560085e-02 -6.136948e-02 -1.423957e-01 6.835254e-03 1.303979e-02 3.659754e-02 -2.808638e-02 -6.476577e-02 -8.068314e-02 2.961730e-02 4.041558e-02 -3.700755e-02 -1.771714e-02 -2.572306e-02 -8.735887e-02 2.511319e-02 7.768909e-02 1.368094e-02 -5.285310e-02 4.477480e-03 8.055089e-02 1.074780e-01 9.150018e-03 -4.442834e-02 -1.039647e-01 -7.563247e-02 4.772839e-04 9.554382e-03 1.402442e-02 -1.328237e-02 -7.794449e-02 -7.962305e-02 6.792973e-03 -4.176556e-02 6.773860e-02 -6.994488e-02 8.660549e-02 -3.155990e-02 1.587717e-02 1.193847e-02 -2.320758e-02 -9.697147e-02 -1.561151e-02 8.446970e-02 -5.638697e-02 -7.481561e-02 -2.005899e-04 -2.305281e-02 -7.459768e-02 -4.897876e-02 -3.105480e-02 -2.039265e-02 1.531057e-02 3.749571e-02 2.177714e-02 1.775362e-02 8.637956e-02 5.702188e-02 -1.471206e-01 -1.834244e-02 -7.975245e-02 -3.566147e-02 4.365944e-02 -3.612420e-03 -1.543967e-02 7.296470e-02 -6.315906e-02 -3.645047e-03 2.863935e-02 -5.007857e-04 -5.266100e-02 -8.214524e-03 2.204380e-02 1.124648e-02 1.745060e-02 2.202452e-02 1.712649e-02 -6.559998e-02 -1.750691e-02 1.660326e-02 -1.589238e-01 4.369739e-02 2.133711e-02 -4.963586e-02 -3.219527e-02 -8.012113e-03 2.088162e-02 -1.887943e-02 5.968255e-02 2.065080e-02 -3.743079e-02 -2.044229e-02 1.667305e-02 3.566241e-02 3.058433e-02 -3.992720e-03 6.638597e-03 3.910069e-03 5.254717e-02 -5.988049e-02 -1.004468e-02 -1.098331e-01 7.746968e-03 -9.038451e-03 -2.341219e-02 -1.066456e-01 8.204403e-02 5.048772e-02 2.384933e-03 2.901551e-02 -4.005606e-02 2.732705e-02 7.810313e-02 -5.771760e-02 1.360048e-01 -2.148253e-02 4.299762e-02 -4.150166e-02 1.367599e-02 -7.066467e-02 -3.523458e-02 -1.574697e-02 -4.846359e-02 -3.074995e-02 4.059601e-02 -5.008102e-02 -4.175053e-02 -2.087657e-02 -7.630472e-02 -5.081838e-02 -1.635568e-02 -3.147811e-02 2.333875e-02 8.004712e-03 1.709649e-02 1.490493e-02 6.171725e-02 8.205240e-02 1.101117e-02 -4.555585e-02 -7.693870e-02 -1.117412e-01 -5.873570e-02 -4.290845e-02 -1.999853e-03 -9.409321e-02 6.906936e-02 4.827535e-02 5.225826e-02 -3.486811e-02 -4.925438e-03 -6.871959e-02 5.742063e-02 -3.828859e-02 -1.014883e-02 4.629518e-02 1.336238e-01 3.391397e-02 1.166182e-02 -9.245261e-02 1.205656e-01 5.835533e-02 -3.878214e-02 9.313593e-02 6.698499e-02 -5.878155e-03 -3.062574e-02 3.008335e-02 7.946865e-03 2.434348e-02 6.203265e-02 6.083560e-02 3.947183e-02 3.029122e-02 -6.787364e-02 -6.635023e-02 2.114221e-02 1.287389e-02 1.172275e-02 3.696125e-02 -3.419319e-02 4.996769e-02 -6.607367e-02 -1.009777e-02 7.194163e-02 -2.739597e-02 9.672632e-02 9.944529e-02 8.150661e-02 3.617683e-02 -1.195021e-02 7.867213e-03 6.183243e-02 1.098332e-02 3.459785e-02 -1.211813e-03 -3.377201e-02 4.697427e-02 6.837261e-02 -3.693930e-02 2.671119e-02 6.983021e-03 6.628858e-03 -2.807429e-02 -8.967100e-02 5.785371e-02 -6.245939e-02 -4.067620e-02 2.330194e-02 -1.633609e-02 -8.526404e-02 -1.749980e-02 6.891159e-03 -5.866123e-02 2.359474e-02 -3.428055e-02 4.284728e-02 8.717260e-02 2.961562e-02 -3.863468e-02 -3.024888e-03 2.216630e-02 -2.783108e-02 4.749038e-02 -9.776002e-02 8.245495e-02 -1.022626e-01 -1.633163e-03 -5.469675e-02 3.725299e-02 -5.523497e-02 -7.737117e-02 -2.971196e-02 -5.214027e-03 -8.982455e-02 3.413871e-02 -1.263502e-01 4.276552e-02 -2.293709e-02 6.603658e-02 -1.248607e-02 -6.759416e-02 1.885534e-02 -2.227930e-03 -6.764259e-02 -5.090317e-03 -9.070758e-02 -5.414067e-03 8.492637e-02 6.675605e-02 1.612129e-02 -1.603574e-02 -1.917848e-02 -3.268653e-02 1.793844e-02 -7.932786e-03 -1.925178e-02 7.779249e-03 -1.232384e-01 8.723942e-02 3.366905e-02 -5.752288e-02 2.198996e-02 -5.710388e-02 -2.339707e-02 -3.473615e-02 7.528661e-02 -4.782417e-02 5.039848e-03 -6.960826e-02 -1.834315e-03 -4.855751e-03 -6.980350e-02 6.897816e-02 6.142200e-02 -4.340137e-02 3.423521e-02 1.787388e-02 2.924170e-02 6.887351e-02 -1.850261e-02 8.994670e-02 -1.455604e-02 -4.688611e-03 9.612147e-02 6.545645e-03 -1.233498e-01 1.568149e-02 -5.222449e-02 -8.544697e-02 -4.581163e-02 -6.985876e-04 -6.143108e-02 -6.821100e-02 -3.396373e-03 5.824445e-02 -1.875566e-02 -3.293497e-02 -9.087694e-02 -4.287043e-02 3.992470e-02 3.053338e-02 8.636157e-03 -3.294622e-02 1.043016e-02 9.202395e-02 -3.575513e-02 7.989754e-03 -9.907222e-02 3.257573e-02 -2.278111e-02 -5.828629e-02 3.932601e-02 -6.417266e-02 -6.118098e-02 9.057430e-02 -3.535612e-02 -2.748344e-02 -4.675654e-02 -1.916183e-03 -1.126574e-01 6.832588e-02 7.008377e-03 -1.224733e-02 -4.470116e-02 3.550115e-02 8.599377e-02 1.779376e-02 -7.205491e-02 -5.311984e-02 -1.141946e-02 -1.289025e-02 -9.349687e-03 4.564889e-02 1.802751e-02 -6.469665e-02 -1.002989e-01 2.515710e-02 9.381510e-02 -4.135805e-02 -7.706636e-03 6.031332e-02 7.310287e-02 2.013631e-02 8.214012e-02 4.050451e-02 -6.704159e-02 -1.600758e-01 -1.031108e-01 -2.818157e-04 9.740120e-03 -4.971481e-02 -4.257652e-02 -4.053056e-02 -7.651024e-02 -1.062954e-02 -8.785524e-02 -1.747031e-02 -7.163513e-02 -4.942950e-02 1.041579e-01 1.159965e-02 -1.800686e-02 -1.485938e-02 -7.734421e-02 6.743388e-02 4.282120e-02 -2.674667e-02 1.134102e-02 -3.714780e-02 1.265790e-02 -5.393049e-02 1.997903e-02 6.350623e-02 -3.363713e-02 -1.052056e-01 -4.167085e-03 6.639833e-02 2.361838e-02 6.604786e-04 -8.028292e-03 6.128995e-02 1.253754e-01 -8.610499e-02 5.716464e-02 -2.070194e-02 3.069825e-02 -5.507955e-02 -1.307229e-01 9.161268e-02 -6.493886e-02 3.386406e-02 -8.683203e-03 -2.173080e-03 6.951054e-03 -2.755105e-02 9.667897e-03 1.431915e-02 3.816879e-02 1.777215e-02 1.029796e-02 4.600064e-02 -1.065776e-01 -6.503740e-02 -6.922615e-03 4.821506e-02 5.348896e-03 2.916585e-02 1.347217e-02 1.032200e-01 3.888177e-02 7.257193e-02 -8.383093e-03 -4.474849e-02 -1.237281e-01 -5.215215e-02 -2.777467e-02 -8.466371e-02 -4.479751e-02 -2.745872e-02 -7.887636e-02 -6.154631e-02 7.434002e-02 -5.202204e-02 -4.269110e-02 -6.722924e-02 5.797519e-02 5.508142e-02 2.857136e-02 1.346282e-03 -6.173345e-02 -6.108148e-02 -4.761248e-02 3.950410e-02 7.670426e-02 8.238410e-02 1.412827e-01 1.192485e-01 1.116908e-01 1.008030e-01 -7.495826e-02 -5.455434e-02 -1.477180e-01 3.287867e-02 -4.532820e-02 7.597471e-02 3.850160e-02 -3.394077e-02 -8.501068e-02 -5.743093e-02 5.246231e-02 -1.595229e-02 -7.486024e-02 -7.261243e-03 9.205891e-02 1.025876e-01 1.006475e-02 1.938100e-02 7.338874e-03 -8.900711e-02 -2.871839e-02 -1.841677e-02 4.517256e-02 -1.286043e-02 1.580608e-02 1.150494e-01 2.162074e-02 -2.674615e-02 -9.241428e-02 -8.373406e-02 1.727221e-02 -3.620232e-02 4.364935e-02 -1.294719e-01 -5.462734e-02 -6.933662e-02 -1.543153e-02 3.861709e-02 -2.760074e-02 -6.256242e-02 4.612104e-02 -3.853991e-02 1.703126e-02 -2.381382e-02 4.123432e-02 1.097336e-03 3.660550e-02 4.112223e-02 1.141245e-01 -1.165132e-03 -6.314393e-02 -3.173487e-02 3.065905e-02 7.854750e-02 -4.350038e-02 3.628907e-02 -6.730243e-02 -1.354196e-01 -8.102276e-02 -5.841875e-02 -1.570520e-03 -6.069469e-02 5.484566e-02 -2.040596e-02 -1.304676e-02 4.662095e-02 -3.780538e-02 -9.327447e-05 8.780953e-02 1.560475e-02 -1.428672e-03 -4.244098e-02 -5.141646e-02 1.030542e-01 1.005640e-02 9.942824e-02 -2.041122e-02 9.177590e-02 1.041881e-02 3.901037e-02 6.945772e-02 1.755238e-02 2.029075e-02 -1.282395e-01 -9.525310e-02 2.919811e-02 -7.775543e-02 -2.491383e-02 -2.125857e-02 -4.331790e-02 -8.509726e-02 -5.850452e-02 8.612263e-02 -3.993165e-03 -6.004568e-02 -4.566255e-02 4.460498e-02 -5.020457e-02 -4.503723e-02 -8.152334e-02 -7.208099e-02 9.723123e-02 7.634063e-03 1.051732e-02 3.083306e-02 9.356201e-02 5.027229e-02 2.905212e-02 -1.627102e-02 -3.642847e-02 -6.770543e-02 -1.422263e-01 -7.317771e-02 6.645605e-02 -1.141626e-01 -3.369447e-02 4.902351e-03 4.892877e-02 1.252459e-01 -2.066474e-02 -4.442223e-02 5.354678e-02 1.075857e-02 1.013374e-01 3.717388e-02 -3.096000e-02 -6.430214e-03 1.305829e-02 2.625296e-02 -3.110385e-02 -7.695484e-02 -7.143556e-02 6.062989e-02 3.503548e-02 -7.936813e-02 -3.898942e-02 -1.154335e-01 -4.646446e-02 -1.008272e-01 -7.575902e-02 -3.183090e-02 -1.865070e-02 -2.286491e-02 5.027612e-02 1.099263e-01 3.564827e-02 -1.469234e-02 3.797433e-02 -3.781616e-02 -4.171108e-02 -4.400450e-02 1.476638e-02 6.310577e-02 1.175962e-01 7.555835e-02 4.619761e-02 -1.817749e-02 1.755564e-02 3.359249e-02 -1.128460e-02 1.046922e-01 -2.654295e-02 -1.556484e-02 4.739637e-02 1.236425e-01 -8.194702e-02 -4.944576e-02 3.504518e-02 -6.087072e-02 7.910790e-02 -5.375415e-02 4.293514e-02 -1.454953e-02 1.791612e-02 -5.392254e-02 -8.142695e-02 3.915483e-02 -2.673407e-02 -4.640101e-02 -5.582572e-02 -5.275709e-02 6.881230e-02 -4.323297e-02 -2.254495e-02 1.096766e-01 -1.105491e-02 7.347894e-03 4.187289e-02 2.886713e-02 -1.057213e-02 7.936689e-02 2.441531e-02 -3.237182e-02 -6.240791e-02 -5.693717e-02 -5.593163e-02 -1.092007e-01 5.461738e-02 -5.332580e-03 1.905332e-02 -7.644151e-02 -2.663031e-02 -1.239319e-02 3.840135e-03 -1.039239e-02 -6.287818e-02 5.514671e-02 3.587476e-02 3.781002e-03 5.209904e-02 5.929980e-02 6.451935e-02 2.076449e-03 -1.596189e-02 -1.821338e-02 5.541713e-02 -2.447501e-02 -3.720093e-02 3.154928e-02 3.372983e-02 3.444621e-02 -3.765529e-02 1.891236e-02 5.035069e-02 -2.202446e-02 -1.438829e-02 -1.713847e-02 7.444580e-02 4.462047e-02 -6.773626e-02 -7.680986e-02 3.283878e-02 -1.076333e-02 2.689897e-02 1.341965e-02 5.099254e-02 -8.211101e-02 -2.767126e-02 1.268744e-02 1.189361e-02 -4.775391e-02 -2.651717e-02 -2.947634e-02 2.338279e-03 3.589466e-02 -1.478613e-02 -9.236590e-03 -1.052834e-01 -5.437449e-02 9.346779e-02 -8.652098e-02 6.909227e-02 -1.496100e-02 -9.920211e-02 7.337400e-02 6.469320e-02 -2.625923e-02 4.381292e-02 -1.797539e-02 2.572165e-03 8.397878e-03 -1.166779e-02 2.648482e-02 1.948327e-02 -2.640968e-02 1.494991e-02 -2.629364e-02 6.758863e-03 -2.509570e-02 4.913921e-03 8.084483e-02 -3.302650e-02 -7.389908e-02 8.051650e-02 1.473824e-02 -3.293199e-02 -1.260923e-02 -4.615140e-02 4.736827e-02 3.602906e-02 3.174770e-02 1.112195e-02 -1.035427e-01 -5.995146e-02 1.436438e-02 -1.340952e-01 -4.003013e-03 -5.178609e-02 3.198616e-02 -9.929869e-03 5.348344e-02 1.705414e-02 5.745180e-03 -4.916107e-02 3.170233e-02 1.201668e-01 -8.639049e-02 -5.170811e-02 8.403788e-02 2.580445e-02 -1.510356e-02 3.939629e-02 1.697466e-02 -3.308070e-02 -3.439315e-02 4.307972e-02 1.795195e-02 5.473100e-02 3.318471e-02 -3.091304e-02 7.716865e-02 -4.613117e-02 -2.292862e-02 -3.955738e-02 -7.077029e-02 3.144573e-02 -5.317712e-02 -3.455857e-02 4.761722e-02 4.369986e-02 -3.138680e-02 -6.603914e-02 -5.255740e-03 -8.070887e-02 -5.107852e-02 -1.964907e-02 -8.918198e-03 -3.120055e-02 -1.258283e-02 6.340710e-02 2.445018e-02 6.420518e-02 3.667033e-02 2.364329e-03 -6.971882e-02 -7.443529e-02 -1.374821e-03 -2.234089e-02 -4.912046e-02 1.967265e-02 6.153012e-02 -3.784315e-03 3.769114e-03 -2.793693e-02 -3.474626e-02 9.968453e-02 -6.345834e-02 -8.143075e-03 -2.260665e-02 -5.494669e-03 5.301057e-02 4.966179e-02 -8.376668e-03 5.398200e-02 -4.506358e-02 3.243757e-03 7.488863e-02 -4.555569e-02 -9.148267e-04 6.908332e-02 -4.528136e-02 -5.000254e-03 -2.778975e-02 -6.374614e-02 2.574291e-02 -4.935815e-02 8.378270e-02 4.441677e-03 -4.938753e-03 6.719740e-03 4.683955e-03 -9.632393e-03 2.746952e-03 -2.903237e-02 -2.522550e-02 2.661999e-02 -1.079689e-01 -4.029802e-02 6.443146e-04 1.467095e-02 -2.748491e-02 -7.343206e-03 -3.481859e-02 -1.140088e-01 4.131114e-02 3.140567e-02 -2.123641e-02 1.038445e-01 8.608081e-02 1.922453e-02 9.503655e-02 4.947794e-02 5.545599e-02 -3.616852e-02 -3.202535e-02 -4.972385e-02 -2.674931e-02 -1.128408e-01 6.306798e-02 -5.421078e-02 3.202147e-02 -6.529100e-02 5.899635e-03 -6.022285e-02 -1.094430e-03 -8.119694e-02 -3.191017e-02 1.730087e-02 -1.139779e-02 -1.867768e-02 -8.563392e-02 -1.262477e-01 -3.090827e-02 1.419413e-02 9.691005e-02 5.825606e-02 4.808025e-02 7.403071e-03 -2.992700e-02 5.899765e-02 -7.158364e-03 2.641286e-02 1.316782e-01 -5.420092e-02 -3.731555e-02 -3.609118e-02 -2.761315e-02 -5.809758e-02 6.724135e-02 -7.152513e-02 -4.584145e-02 1.293422e-02 -6.338206e-02 -1.430885e-02 -2.549502e-02 -4.086771e-02 -4.693999e-02 -1.109625e-01 -5.788805e-02 4.142667e-02 3.260309e-02 -3.880743e-02 3.981258e-02 -2.961944e-02 -5.251587e-02 -8.177182e-02 -3.773606e-02 1.817455e-02 -3.299227e-02 9.070326e-02 6.389858e-02 -3.220702e-02 -2.926425e-02 1.386725e-03 6.003895e-02 -5.544392e-03 -1.155955e-03 -3.728547e-02 6.559667e-02 -1.848045e-02 -3.447187e-02 -8.809371e-02 3.006806e-02 -5.407687e-02 -5.536902e-02 -8.127538e-02 -4.539307e-02 -1.335004e-01 -7.026406e-02 -9.853199e-02 7.989111e-02 4.565404e-02 8.982776e-03 1.806447e-01 8.590809e-02 -7.017017e-02 -3.703278e-02 4.397472e-02 1.987714e-03 2.840580e-02 -2.812439e-02 1.323981e-01 6.878094e-03 6.846649e-02 7.088705e-02 -2.953976e-02 2.918727e-02 7.835899e-02 7.128358e-02 2.766812e-02 -2.286749e-03 -3.209859e-02 2.755348e-02 -2.923353e-02 -4.114767e-02 -3.810597e-02 -6.657683e-02 -2.389493e-02 8.442919e-02 -9.720130e-03 -1.125153e-02 1.523606e-02 5.371729e-02 -1.671206e-02 1.850220e-02 1.895494e-02 7.102049e-02 6.866963e-02 2.254808e-02 -7.969648e-02 5.966465e-02 -1.412649e-02 6.080372e-02 5.372831e-03 -3.876962e-02 -3.052455e-02 -6.358062e-02 -4.106201e-02 -2.586593e-02 -3.747384e-03 -2.536118e-02 -2.708760e-02 6.667403e-04 -9.824144e-03 1.190474e-01 -2.308857e-02 2.787623e-02 1.684045e-02 -1.180509e-01 6.697455e-02 -7.038711e-02 2.273285e-02 4.313045e-02 1.020275e-02 2.901908e-02 -5.762311e-02 1.186924e-03 1.194301e-01 2.475741e-02 -3.198982e-02 -1.142272e-01 5.371956e-02 2.048426e-02 -1.723663e-02 4.295512e-02 -5.122263e-02 -5.800252e-02 3.881979e-02 -1.044642e-01 -2.065208e-02 1.916460e-02 4.379231e-02 8.803094e-02 8.597544e-03 7.663096e-02 -3.233788e-03 -5.444278e-03 -7.438405e-02 -6.644446e-02 -5.697093e-02 8.222930e-03 -1.746074e-02 7.686189e-02 4.073239e-02 1.183165e-02 4.898408e-02 3.579011e-02 -1.657100e-02 -2.624553e-04 9.682320e-02 -7.792282e-03 4.045412e-03 -7.686491e-02 -1.119783e-01 -4.925940e-02 -5.680707e-02 -1.818948e-02 6.560239e-02 1.075579e-02 2.078151e-02 1.082056e-01 -6.907878e-03 2.115395e-02 2.433874e-02 1.333891e-01 -8.862337e-02 -5.572030e-02 4.780416e-02 5.826275e-02 -5.984073e-02 7.699525e-02 1.363683e-02 1.189869e-02 4.806934e-02 8.972324e-02 5.087131e-02 -3.112922e-02 1.080554e-02 -1.939863e-02 -6.270380e-02 7.328035e-02 -7.907228e-02 -2.504617e-02 -7.703232e-02 -2.371503e-02 1.032794e-02 2.968794e-03 -3.835521e-03 3.021155e-02 9.711660e-03 8.192628e-02 1.084159e-01 1.115619e-01 5.789579e-02 -2.452405e-02 1.992265e-02 6.442248e-02 1.486833e-02 -3.069455e-03 5.686643e-02 -4.608325e-02 2.770132e-02 -2.426331e-02 -1.987305e-02 6.394156e-02 1.142466e-01 2.996277e-02 -4.974162e-02 2.816534e-02 2.657360e-04 -5.510642e-02 6.231644e-03 -7.142764e-02 -4.277520e-02 9.363374e-03 5.629245e-02 -1.921600e-02 2.056388e-02 -4.098102e-02 9.435171e-02 5.565623e-02 6.587453e-02 -5.953049e-02 -5.811336e-02 -8.376676e-02 5.718098e-02 -4.275620e-02 4.476832e-04 3.752061e-02 -1.809200e-02 -6.801611e-02 4.936026e-02 7.900005e-03 -6.374320e-02 2.423749e-02 -3.409451e-02 1.733396e-02 2.169974e-02 -7.621754e-02 -3.196842e-02 -2.310524e-01 -2.920338e-02 -1.289263e-01 1.236224e-01 4.289845e-03 -9.134386e-03 9.127702e-02 5.104791e-02 5.455160e-02 3.020624e-02 2.870328e-02 -1.965364e-03 2.835833e-03 -9.883831e-02 -5.304448e-02 -2.158779e-02 -7.707332e-02 -1.190974e-03 -8.195214e-03 -2.830463e-02 -3.112341e-02 -2.702362e-03 -2.288917e-02 -2.579809e-02 -1.014404e-02 -3.055752e-02 -3.361779e-02 4.398469e-03 -2.550759e-02 -1.059897e-02 3.261885e-03 -4.213514e-02 -5.990641e-02 1.978120e-02 1.153836e-01 1.036518e-01 -5.258920e-02 -9.765592e-02 1.236233e-01 4.387720e-02 -6.866488e-02 -7.494667e-02 -7.537609e-02 -3.082037e-02 -6.905696e-02 -2.885607e-03 -9.010206e-03 5.719667e-03 4.760566e-02 6.152636e-03 -6.476221e-02 4.567827e-02 -2.492002e-02 3.027696e-02 -3.118905e-02 -1.059929e-01 -2.866244e-02 -7.389017e-02 2.049942e-02 -1.881217e-02 8.314180e-02 7.184338e-03 2.833023e-02 -4.219391e-02 -4.141898e-02 -2.522310e-02 3.057035e-02 -5.438427e-03 -4.283748e-02 -1.088998e-01 -1.515153e-01 -4.971824e-02 -6.856010e-02 4.210048e-03 -7.597306e-02 6.333337e-02 2.653832e-02 -4.718009e-02 1.757995e-02 6.783664e-02 -9.977965e-03 -9.977700e-02 -1.704643e-02 5.005430e-02 -9.914150e-02 5.815014e-02 9.187689e-03 1.356324e-02 3.327425e-02 2.547897e-02 4.719371e-02 -1.002988e-01 -3.243153e-02 -5.334493e-02 1.124560e-03 1.479282e-01 -1.195142e-01 -4.632606e-02 -3.792516e-02 -1.659981e-01 -9.762141e-02 -1.006066e-01 -3.055656e-02 -9.010211e-02 -5.136139e-02 -7.744605e-02 3.362709e-02 3.014248e-02 7.399012e-02 -2.510631e-02 -7.853109e-03 4.223842e-02 1.163022e-01 -5.406942e-02 -7.551948e-04 -8.969100e-03 -3.300176e-02 4.704791e-02 -1.394762e-02 -1.021524e-01 -5.417811e-02 2.914571e-02 -1.865835e-02 1.075754e-02 -5.491533e-02 1.486262e-02 6.357188e-03 -1.615367e-01 2.661229e-02 -4.711812e-02 -8.076187e-02 1.528458e-02 -5.343671e-02 -6.427652e-02 -1.742259e-02 6.773771e-02 -9.321451e-02 -6.816702e-02 -1.139766e-01 -5.862402e-02 9.414451e-03 -7.190217e-02 4.022730e-02 6.127824e-03 2.138535e-02 3.210641e-03 -1.063644e-01 -5.275156e-02 -3.815340e-02 -1.357798e-02 5.806512e-02 8.274077e-02 5.087111e-03 6.010384e-02 -5.652041e-02 -5.202526e-02 -6.941295e-02 2.061485e-02 2.499437e-02 -8.651181e-03 -1.111479e-01 -1.273822e-02 2.996487e-02 -2.020049e-02 -5.734825e-03 1.226513e-02 -1.022389e-01 6.269257e-02 -8.074003e-02 -3.836551e-03 2.577739e-02 -3.253575e-02 -1.521132e-03 -4.819685e-02 -5.024873e-02 -2.713554e-02 3.109191e-02 3.432544e-02 6.944805e-02 7.718475e-02 -7.220909e-03 -6.097344e-02 -8.308192e-02 -1.116164e-01 -1.216141e-01 -4.737398e-02 -5.917263e-02 -1.608300e-03 -1.339926e-02 1.884894e-02 5.686282e-02 -4.956830e-02 -1.606975e-02 -2.586500e-02 -5.081642e-02 -4.992242e-02 4.654328e-02 2.863817e-02 -2.068598e-02 3.343898e-02 5.210205e-03 6.492500e-02 4.431534e-03 1.842357e-02 7.218084e-02 1.587292e-03 2.513441e-02 5.271014e-02 -3.687725e-03 -1.482417e-02 -2.173486e-02 -6.893691e-02 2.081981e-02 -4.857647e-02 -3.747522e-02 -1.497879e-02 2.664580e-02 8.129273e-02 6.673489e-02 6.436584e-02 3.299513e-02 8.429322e-03 -4.836460e-02 -3.738629e-02 2.067349e-02 1.010075e-01 3.230435e-02 2.196399e-02 6.230763e-02 5.420986e-03 1.725032e-02 1.048916e-01 1.194532e-01 6.851191e-03 2.888694e-02 -1.136239e-01 -1.719681e-02 3.400919e-03 -7.545181e-02 -8.127844e-02 1.038247e-01 -1.366511e-02 6.158415e-02 -3.543455e-02 -6.041093e-02 -7.724906e-02 5.030979e-02 -8.372120e-02 -9.973731e-02 -2.827292e-02 -2.342205e-02 -3.059131e-02 -9.648147e-02 -4.538785e-02 7.924503e-02 -4.661335e-02 6.386802e-02 6.707847e-02 1.145415e-01 1.127377e-01 1.069487e-01 7.036007e-02 1.169539e-01 1.052233e-02 9.009442e-02 -2.161151e-02 -7.375027e-02 -1.316662e-02 -1.039320e-01 5.426572e-02 -1.782858e-02 5.966946e-02 1.105725e-01 5.272161e-04 1.932185e-03 -7.626413e-03 2.053658e-02 1.138196e-01 5.663117e-02 -1.731165e-02 2.208763e-02 -1.048827e-01 3.758770e-02 -9.467665e-02 1.319458e-01 -5.376926e-02 1.071031e-01 1.725803e-02 1.327415e-01 -3.346099e-02 4.541325e-02 9.025540e-02 4.087558e-02 4.895909e-03 -2.074416e-02 -8.688526e-03 -4.437234e-02 -9.839951e-03 -4.005507e-03 3.575346e-02 3.786312e-03 4.276535e-02 -7.510203e-02 7.125032e-02 2.349147e-02 8.123551e-02 1.098178e-02 -1.301531e-02 1.112287e-02 -4.184852e-02 6.621930e-03 1.807298e-02 3.429055e-02 -6.417448e-02 2.151580e-02 -5.753636e-02 -1.836299e-02 4.510185e-02 -4.914934e-03 3.726078e-02 1.260646e-03 3.686685e-02 -4.953508e-02 -7.548907e-02 -1.058560e-01 1.081326e-01 3.429125e-02 8.149998e-02 -1.919339e-02 5.669573e-02 -2.248441e-02 -6.377995e-02 4.277797e-02 -1.477392e-02 1.797458e-02 3.994607e-02 5.081092e-02 1.676939e-03 -1.067108e-01 -5.135226e-02 5.033126e-02 1.364383e-01 3.959814e-02 7.545791e-02 -9.795070e-02 8.339299e-02 -4.558275e-02 -2.488321e-02 -1.246997e-03 6.439288e-03 -5.924437e-02 5.059574e-02 -7.298899e-02 7.027538e-03 -4.462472e-02 1.077466e-02 -1.019026e-01 -4.946229e-02 -6.308685e-02 4.594573e-02 -1.131213e-01 8.742436e-02 -2.595774e-02 9.477992e-03 -1.287277e-01 -4.024655e-02 4.199674e-02 7.546776e-02 -5.400876e-02 6.010140e-02 1.458116e-02 2.995271e-02 -8.818808e-03 8.272230e-02 -8.747583e-02 2.931338e-02 7.676799e-02 3.855072e-02 -1.539595e-02 2.558899e-02 1.289833e-02 -1.390632e-02 5.402438e-02 6.782115e-02 -6.872509e-02 9.386648e-02 2.613326e-03 -8.623215e-03 4.679176e-02 -3.874950e-02 2.364653e-02 -1.653959e-02 -1.764552e-03 1.956778e-02 1.067892e-03 -1.657637e-02 6.087080e-02 2.897539e-02 2.460736e-02 4.333195e-02 -1.055587e-01 4.592398e-02 1.165202e-01 -5.223924e-02 1.271816e-01 -9.041237e-02 -3.522701e-02 3.405708e-02 -3.019008e-02 -4.495567e-02 7.729877e-03 2.208600e-02 4.416567e-02 -1.374576e-02 -1.024604e-01 2.892084e-02 6.542898e-02 -2.329710e-02 3.973466e-02 -6.889345e-02 -4.102820e-02 -6.893546e-02 -4.647466e-03 -6.255058e-02 7.863175e-02 1.784585e-02 -9.798638e-03 2.726537e-02 6.097761e-02 1.629076e-02 -4.543720e-02 1.054816e-03 -2.622651e-02 2.257003e-02 -2.339669e-02 -1.902758e-03 4.973568e-02 -4.098729e-02 -7.459185e-03 -1.178786e-02 -3.078655e-02 1.292433e-01 5.906250e-02 -3.326999e-02 -3.243627e-02 1.724036e-02 6.387173e-02 -5.410312e-03 3.691355e-02 -1.040547e-01 -2.760517e-03 4.499819e-02 -1.884946e-02 -6.513276e-02 1.641444e-02 -9.819833e-02 -4.942359e-02 5.912699e-03 -7.133372e-02 1.105911e-01 -2.663499e-02 -1.171827e-01 3.896117e-02 -9.621676e-04 -1.617300e-02 1.810964e-02 3.120943e-02 -5.137467e-03 3.508719e-02 2.010530e-02 4.852562e-02 -2.402899e-02 -1.905232e-02 3.193184e-02 3.462294e-02 -2.458735e-03 -1.164169e-02 2.873374e-02 -7.185179e-02 -1.099062e-01 9.237014e-03 -1.727173e-02 -7.710977e-02 -6.411995e-02 -6.300093e-02 -4.554667e-02 3.473032e-02 5.333659e-03 -6.490131e-02 1.643674e-02 8.727921e-03 -4.331864e-02 -4.004392e-02 6.961760e-04 3.037994e-02 -5.763758e-03 -2.851711e-02 -1.147305e-02 4.952742e-02 3.908356e-02 -2.122399e-02 1.446883e-01 1.264652e-01 -6.553593e-02 3.047104e-02 -8.180495e-02 -3.117787e-02 3.756209e-02 3.732677e-02 -2.485207e-02 4.925889e-02 -1.237236e-01 -9.812562e-02 -2.073911e-02 -8.268636e-02 1.038815e-01 2.756955e-02 -1.880586e-03 -8.040611e-02 -6.998257e-02 -5.295736e-02 5.397800e-02 7.475991e-02 -5.558060e-02 -1.114204e-02 8.511056e-02 -7.605912e-02 9.288230e-02 3.225220e-02 -4.575020e-02 -1.100791e-01 9.423881e-03 8.502147e-02 1.276565e-02 3.089301e-02 4.136723e-02 3.204727e-02 1.049086e-01 3.844209e-02 4.077380e-02 -2.326544e-02 -4.956356e-02 -3.405907e-02 -3.264334e-02 -6.820792e-02 -1.779991e-01 -1.380345e-01 -1.030477e-01 -4.384866e-02 -6.233296e-02 1.465550e-03 -8.087823e-02 6.036099e-02 -2.336629e-02 -4.070312e-02 1.976800e-03 2.459915e-02 2.156186e-03 4.870886e-02 -6.767989e-02 2.149601e-02 5.408583e-02 4.703547e-02 5.364284e-02 9.600969e-02 1.770707e-01 4.611657e-02 1.547134e-01 1.104950e-01 6.754835e-02 -3.831869e-02 7.091185e-02 -5.622820e-04 4.769114e-02 -2.434403e-02 -6.949435e-03 -1.077134e-01 -4.995395e-02 -7.512776e-02 -1.006891e-01 -4.353887e-02 -1.284773e-02 -8.430418e-03 1.316401e-01 8.042876e-02 3.332073e-02 5.763544e-02 -3.624289e-03 7.483190e-03 2.345224e-02 3.272000e-02 1.229976e-01 6.665405e-02 2.886230e-02 7.708031e-02 1.581815e-01 1.386208e-01 -5.827366e-03 -1.902872e-02 1.866612e-01 -3.962697e-03 -1.757140e-02 1.370322e-01 -3.098568e-02 -7.221748e-02 -1.201762e-02 -6.787723e-02 -7.400172e-02 4.900473e-02 -2.788548e-02 2.462484e-02 -5.566682e-02 -8.125352e-03 -4.339731e-02 -3.184808e-02 8.705995e-02 3.174749e-02 1.591668e-02 1.017476e-02 -1.569881e-02 9.151387e-03 5.563012e-02 1.235676e-01 2.711404e-02 1.023977e-01 2.570786e-01 1.377346e-01 7.681574e-02 1.957890e-01 -1.810492e-02 -8.819191e-03 1.023492e-01 5.584434e-02 -7.106725e-02 9.142448e-04 7.825346e-02 -4.386359e-02 1.071260e-02 1.235771e-01 -5.428683e-03 -7.997889e-02 1.504110e-03 1.323654e-03 -1.401687e-02 1.081280e-01 1.426966e-02 1.929125e-02 5.845571e-02 6.075281e-02 -5.086910e-02 7.811763e-02 5.696205e-02 1.262001e-01 1.797432e-01 2.331943e-01 2.558302e-01 2.328651e-02 -1.636432e-03 -2.814214e-03 -6.203811e-03 5.167676e-02 -8.370024e-02 2.037501e-02 -6.858234e-02 -5.116421e-02 -6.136491e-02 -2.481837e-02 1.661324e-02 -9.976803e-02 1.120258e-01 -3.381690e-02 1.141114e-01 -3.304241e-02 6.476032e-02 4.737993e-02 1.904875e-02 -4.941860e-02 -6.471497e-02 -1.785835e-02 5.066526e-02 6.696352e-02 1.201375e-01 1.520199e-01 1.120180e-01 9.900341e-02 3.367509e-02 8.703202e-02 1.074240e-02 6.072942e-02 3.238116e-02 -2.702850e-02 -3.976004e-02 -5.576441e-04 5.062714e-03 5.697132e-02 3.353725e-02 -2.009280e-02 3.774136e-02 5.068438e-04 -3.428476e-02 7.504005e-02 -4.190810e-02 7.361318e-02 -3.026699e-02 2.038012e-02 -3.529606e-02 -9.641742e-02 -7.797557e-02 -2.329100e-02 -5.624217e-02 5.647592e-02 8.788345e-02 1.409624e-02 8.692074e-02 -2.104978e-02 -1.019118e-01 -8.816713e-02 -1.547786e-01 -5.586929e-02 -2.521947e-02 3.869328e-02 9.989429e-03 -4.598047e-02 7.476236e-02 5.852134e-02 1.044409e-02 5.056018e-02 1.016898e-01 4.678171e-02 -3.572836e-02 -7.454023e-03 -2.913101e-02 7.248542e-02 4.058076e-02 -2.615464e-02 -1.232916e-01 -9.978414e-02 -3.188680e-02 2.129134e-02 2.725415e-02 8.848968e-02 1.266819e-02 -5.558788e-02 -1.915623e-02 -2.416087e-02 -7.103753e-02 -1.344742e-01 -5.911437e-02 -5.702982e-02 -3.537895e-03 -4.843527e-02 5.441799e-02 3.913821e-02 -3.909104e-03 -2.355508e-02 -2.522440e-02 4.109312e-02 4.006806e-02 -1.015923e-03 4.262252e-02 1.252791e-02 1.789998e-02 5.506698e-02 1.761962e-02 3.535929e-02 -3.560287e-02 -5.228578e-02 6.495881e-02 8.650473e-02 3.890122e-02 1.341232e-02 -7.601359e-03 -9.858340e-02 -7.551376e-02 -5.598356e-02 -2.221302e-02 6.197088e-03 7.495539e-02 1.054037e-01 -4.077302e-02 -8.066498e-04 -3.559693e-02 -2.367624e-02 -1.536578e-02 -4.728718e-02 7.950308e-02 -1.080939e-02 4.138711e-03 -4.033677e-02 1.415857e-02 9.522497e-02 5.612220e-02 4.621268e-02 1.211675e-02 -7.710594e-02 6.501896e-02 1.609549e-03 -1.229271e-02 5.098278e-02 7.871469e-02 -6.762513e-02 1.038617e-02 -5.332281e-03 -5.912659e-02 -1.589901e-02 -1.288396e-02 -2.204353e-02 2.701499e-02 -1.298376e-02 -1.014610e-01 5.895479e-02 6.100255e-02 -2.001730e-02 -5.559316e-03 -2.949025e-02 -1.420780e-02 -1.174585e-02 4.462504e-02 -1.233884e-02 3.958075e-02 3.108198e-02 1.020128e-01 1.759477e-03 7.299890e-02 5.629737e-02 2.772175e-02 1.205673e-01 1.055113e-01 2.899262e-02 4.669285e-02 -3.491841e-02 -4.461448e-02 5.589539e-02 -4.774358e-02 1.688509e-02 -1.058173e-03 8.819120e-02 1.662869e-02 -5.077469e-02 2.458471e-03 3.572363e-02 3.290766e-02 -5.227110e-03 1.003162e-02 -5.961728e-03 -5.771542e-02 1.036455e-01 9.490769e-02 -1.034363e-03 3.683450e-02 -9.031840e-02 1.244957e-01 6.891025e-02 1.743117e-02 1.635196e-02 2.262622e-02 5.787208e-02 3.370176e-02 6.129937e-03 -7.716163e-02 -1.016481e-02 3.314954e-02 5.633205e-02 6.334508e-02 4.076060e-02 4.001430e-02 1.446714e-02 2.774209e-02 4.440082e-02 -4.936861e-03 6.709503e-03 -5.888953e-02 -3.392071e-02 -4.762992e-02 -2.343517e-02 -1.165635e-02 -9.810869e-02 4.948749e-02 8.832809e-02 7.193636e-02 3.555673e-02 3.252454e-02 7.919848e-02 1.967430e-02 9.201800e-02 3.356439e-02 2.333615e-02 -1.040783e-01 1.761133e-02 -4.595414e-02 -5.275901e-02 -7.909084e-02 3.615705e-02 1.505517e-01 1.078561e-03 -4.434988e-03 -5.986214e-02 -4.335708e-02 6.078729e-03 -6.748426e-02 -5.184627e-02 -8.879858e-02 -4.973666e-02 -9.239129e-02 -1.225388e-01 -5.017463e-02 -1.875265e-02 2.825416e-02 -5.105846e-02 9.603023e-03 -8.169938e-02 1.505237e-03 -2.053610e-02 3.097215e-02 -3.710694e-02 -2.641531e-02 2.839610e-02 -9.876598e-04 -7.168894e-03 3.863677e-02 2.113663e-02 4.120832e-02 2.450653e-02 1.712100e-02 -1.111596e-01 -1.436478e-02 -7.734582e-02 -6.204166e-02 -8.575986e-02 -7.481514e-02 -3.628215e-02 -1.848583e-01 -5.289962e-02 -6.785813e-02 -4.658623e-02 8.045043e-02 -3.504434e-02 -3.754743e-02 6.571475e-02 -7.887040e-02 2.587933e-02 2.245351e-02 -1.091713e-01 -2.857874e-02 1.429059e-02 5.133729e-02 -2.679720e-02 -7.507037e-03 3.562683e-02 -2.241031e-02 5.866628e-02 5.615265e-02 -1.051254e-01 -6.243537e-02 -7.059533e-02 -1.370840e-01 -9.989253e-02 -1.025294e-01 -2.026319e-01 -5.404519e-02 -3.202302e-02 -1.288461e-02 4.230331e-02 5.310844e-02 -2.099888e-02 2.978208e-02 -5.013251e-03 2.856935e-02 -7.982572e-02 1.758864e-03 -2.596887e-02 -4.463642e-02 1.917997e-02 8.256065e-02 4.323368e-02 -2.264515e-02 -7.500592e-02 -6.787938e-02 1.912488e-02 -2.981783e-02 -1.506932e-01 -6.711734e-02 -2.737073e-02 -1.487527e-01 -1.409949e-01 -1.798425e-01 -8.381451e-02 -1.177831e-01 -8.813003e-02 3.764265e-02 8.205825e-03 -1.956086e-02 -3.442874e-02 -1.013623e-02 9.006634e-03 -4.907352e-02 -2.318904e-02 -2.626139e-02 -8.446056e-02 5.484237e-02 3.672279e-02 6.067805e-02 -5.314043e-02 7.172729e-03 9.503728e-02 1.143894e-01 -4.045023e-03 -1.431288e-02 -7.423844e-02 -6.831736e-02 -1.153732e-01 -3.911079e-02 -1.155847e-01 -1.152071e-01 -5.337447e-02 -9.302129e-02 3.135449e-02 3.001166e-03 9.124921e-02 -2.742132e-02 -8.868209e-03 -1.186862e-01 -9.327075e-02 -8.134528e-02 8.920935e-02 -4.558271e-02 1.107439e-01 3.609761e-02 2.478462e-02 -3.682827e-02 4.111625e-02 9.531588e-02 5.121892e-02 3.226224e-02 1.815476e-02 6.991843e-02 6.867165e-02 5.856651e-02 6.278717e-02 -4.004989e-02 7.403837e-02 1.579276e-01 -6.760086e-04 -2.410700e-02 2.164766e-02 7.077238e-02 -5.273919e-02 8.772175e-02 -2.751977e-02 -3.914690e-02 -8.117145e-03 1.341123e-01 -1.912168e-02 -2.180567e-02 -1.737046e-03 3.691530e-02 8.578416e-02 -5.137855e-02 -1.780588e-02 -1.107604e-02 -1.810607e-02 9.073587e-02 8.764434e-02 1.491686e-01 8.370259e-02 6.347813e-02 7.907895e-02 -8.243006e-04 5.705544e-02 1.055460e-01 -9.311267e-02 7.163997e-02 1.500577e-01 -3.659977e-02 3.238269e-02 -4.277567e-02 -7.388880e-02 -1.749922e-02 9.471311e-02 9.101477e-02 1.714040e-02 6.080629e-02 -1.417571e-01 -1.960968e-02 -1.281373e-02 2.897170e-02 -3.958401e-02 -4.470530e-02 -4.644233e-02 2.901864e-02 3.663293e-02 2.115398e-02 9.376715e-02 5.025129e-02 4.125671e-02 4.715199e-02 1.069950e-03 9.294688e-02 1.039519e-01 8.809680e-02 1.615860e-01 2.890104e-03 -1.695496e-02 1.076372e-01 9.332635e-02 -7.737976e-03 1.472753e-02 -1.796914e-02 2.737681e-02 -1.715972e-02 3.846992e-02 4.959721e-02 1.000361e-01 -2.082851e-02 3.912220e-02 5.265936e-02 1.223258e-02 8.203560e-02 2.312332e-02 1.008528e-02 1.156638e-01 -2.731742e-02 7.629846e-02 -1.124467e-02 6.409657e-02 7.402762e-02 8.126421e-02 1.162588e-01 9.083187e-03 -3.249082e-02 4.261555e-02 4.483736e-02 1.903141e-02 1.434385e-01 1.767274e-02 -5.651605e-02 -3.222269e-02 2.446039e-02 -4.517902e-03 6.000978e-02 4.507000e-02 4.658117e-02 4.361473e-02 4.142577e-02 -5.896316e-03 7.906233e-02 5.708764e-02 -3.511399e-02 2.284206e-02 5.359739e-02 7.419602e-02 2.456069e-02 4.600633e-02 -9.742389e-02 -1.154221e-02 1.793913e-03 -4.860661e-02 1.330189e-03 -1.152812e-02 -5.650734e-02 3.191046e-02 -3.243258e-02 -1.834836e-02 5.178441e-02 -3.046394e-02 7.103972e-02 2.381042e-02 -4.202940e-02 -7.333377e-02 4.107774e-03 -3.697660e-02 -5.962559e-02 -6.420923e-02 -2.618890e-02 -2.403114e-02 8.160294e-03 -6.318456e-02 -2.672284e-02 -3.145410e-02 -3.809512e-02 6.575625e-02 1.371570e-02 1.080664e-01 3.921472e-02 1.874537e-02 6.343402e-02 5.916754e-02 -8.182919e-02 -4.060710e-02 -1.140204e-02 1.441755e-02 1.421073e-02 -7.795318e-02 1.906769e-02 2.260279e-02 -4.541909e-02 -5.901158e-02 2.880629e-02 -2.235993e-02 4.292491e-02 5.114060e-02 1.899978e-02 -7.243554e-02 -4.501468e-02 -9.519461e-02 -3.122765e-02 -5.048400e-02 7.720932e-02 2.994357e-02 -1.714104e-02 -7.027148e-02 8.359167e-02 -4.763246e-02 -1.038678e-01 -3.998232e-02 -7.478347e-02 3.958185e-02 -5.425941e-02 2.302072e-02 7.151365e-02 -4.912117e-02 -6.391986e-03 9.641997e-02 -1.353436e-02 -1.296044e-02 -1.573181e-02 -3.788346e-02 -4.009267e-02 5.280796e-02 6.261407e-02 -4.569412e-02 1.012538e-01 8.022864e-02 -2.392807e-02 -9.401279e-02 -5.679455e-02 -1.712781e-02 -2.463382e-02 7.114567e-02 -8.376215e-02 -2.129911e-02 -1.737061e-02 3.739457e-02 -1.742334e-02 -2.346463e-02 -9.190579e-03 -2.900170e-02 2.057014e-02 2.017168e-02 -4.691052e-02 4.386842e-02 1.743396e-02 -5.902420e-03 4.940808e-02 6.492159e-02 -3.868594e-02 -1.820570e-02 5.303031e-03 8.360315e-02 1.976221e-02 7.587391e-03 9.327024e-02 -2.305391e-02 3.287835e-02 -4.823936e-02 -1.232153e-02 2.108587e-02 -6.742224e-02 -4.962960e-02 -3.155799e-02 7.186456e-02 -7.491890e-02 -3.477390e-02 5.204493e-02 -1.077236e-01 9.296522e-02 -3.202600e-03 9.495680e-02 -4.743154e-02 4.272681e-02 -3.257471e-02 1.439088e-02 -3.736524e-02 -3.208521e-02 -8.671666e-02 -1.427779e-01 -3.206183e-03 1.137871e-01 -2.367278e-02 -4.491243e-02 -9.019916e-03 -8.965549e-02 -6.980650e-02 -1.063551e-01 -9.587079e-02 -1.060193e-02 -1.066924e-01 -3.676538e-02 -7.213295e-02 -7.727593e-02 1.695322e-02 3.624663e-02 -7.766224e-02 8.372011e-03 2.655012e-02 -2.666913e-02 -2.241162e-03 1.382239e-03 9.115266e-03 -5.730234e-02 -2.605432e-02 2.088716e-02 -3.824792e-02 -2.751856e-03 -1.435700e-03 -4.225315e-02 1.959432e-03 7.214709e-02 -5.154745e-02 -7.776034e-02 -7.940029e-02 -1.508160e-01 -9.493868e-02 -1.459905e-01 -1.400019e-01 -2.040118e-02 1.333811e-02 3.135242e-02 -6.775436e-02 -1.914496e-03 -3.596503e-02 -5.627345e-02 2.810307e-02 -1.240250e-02 3.224836e-02 1.024633e-02 -5.398214e-02 -5.576413e-02 -5.232640e-02 -3.329579e-02 4.659571e-02 1.753299e-03 9.248213e-02 6.647660e-02 3.842111e-02 -8.027103e-03 -5.652294e-02 1.261806e-01 1.052947e-01 -9.052620e-04 6.795143e-02 1.763109e-03 -3.510134e-02 -9.456768e-03 -4.057046e-02 -3.599519e-02 -3.768664e-02 -5.793978e-02 -1.375943e-02 -1.353479e-02 5.130278e-02 1.382479e-02 -5.436532e-02 2.821370e-02 1.797885e-02 7.944021e-02 4.563974e-02 -4.763619e-03 5.355068e-02 -1.115319e-03 -3.836672e-03 9.149121e-02 1.098392e-01 1.289440e-01 8.253443e-02 6.705813e-02 1.080453e-01 7.579741e-02 1.540477e-01 1.761325e-02 -2.773983e-02 -1.025860e-01 -2.027038e-02 -2.143414e-02 -7.735569e-02 7.489709e-02 -4.970007e-02 2.199291e-02 -1.197462e-02 3.991625e-02 5.702727e-02 4.471064e-02 3.954753e-02 -1.542873e-02 -5.128095e-03 1.187759e-03 1.281669e-02 -8.971498e-03 1.496018e-02 1.372298e-01 -9.743816e-03 1.020507e-01 1.305749e-01 -1.666421e-02 1.358016e-01 9.579120e-02 1.479973e-01 2.027670e-02 5.613289e-02 -7.819842e-02 -1.262673e-01 5.204599e-02 -6.074858e-02 -6.237920e-02 -1.822268e-02 -7.924735e-02 2.044584e-02 -8.772663e-02 -5.477273e-02 2.308508e-02 -3.940199e-02 5.144468e-02 5.445606e-02 1.009007e-01 1.107682e-01 -2.295435e-02 -1.924561e-02 -1.597720e-02 2.600849e-02 3.081840e-02 3.131841e-02 -3.683464e-03 8.678314e-02 -3.683305e-02 4.590049e-02 2.240636e-02 3.219270e-02 -4.397278e-02 1.105006e-02 -4.110629e-02 7.406402e-02 4.020459e-02 -7.326732e-02 -1.939901e-02 -6.286656e-02 -3.462193e-02 1.134334e-02 -5.881715e-02 7.290882e-02 -1.097742e-03 5.544413e-02 2.284056e-02 -2.518504e-02 -5.576824e-02 -9.330807e-02 -1.840819e-02 -8.040451e-02 -2.302645e-02 -2.532547e-02 -1.212739e-01 -7.727455e-02 -2.585241e-02 5.211950e-03 -2.170275e-02 -1.107696e-02 4.028538e-03 -7.120484e-02 2.224453e-02 -6.072686e-02 3.929469e-02 -3.814971e-02 -1.079106e-02 -1.694849e-01 -1.270648e-01 7.778402e-02 3.615260e-02 7.434232e-02 -3.848929e-02 -7.337966e-02 2.494591e-02 9.083218e-03 1.847574e-02 1.795891e-02 -3.144729e-02 -1.874113e-01 -1.088428e-01 -2.373990e-01 -1.519103e-01 -1.617474e-01 -1.740197e-01 -8.407989e-02 -1.182817e-01 7.596692e-03 -6.644325e-03 1.044565e-01 -4.856725e-02 4.660359e-02 -1.595792e-02 -7.100632e-02 5.153015e-02 -9.574709e-02 1.379631e-02 -6.918914e-02 2.924248e-02 -2.575347e-02 -4.057230e-02 -4.544549e-02 -2.063231e-02 1.451227e-02 4.587160e-02 -1.215992e-01 -9.913031e-02 -1.581946e-01 -1.766477e-01 -2.712598e-01 -2.833244e-01 -9.026993e-02 -3.045522e-02 1.398556e-01 1.200945e-01 1.115520e-02 -2.289357e-02 -2.326286e-02 1.373327e-02 7.032413e-02 9.401397e-02 -5.028307e-02 -1.612560e-02 -2.675624e-02 2.607535e-02 3.582073e-02 -2.687149e-02 9.627280e-03 -5.010881e-02 5.601950e-03 -7.123889e-02 1.174767e-02 3.624670e-02 -2.373922e-03 -1.653302e-01 -1.206206e-01 -2.132833e-01 -7.459047e-02 -3.200566e-02 4.636442e-02 8.412628e-02 1.277790e-01 -4.759968e-02 1.346341e-04 8.148448e-03 -2.601726e-02 2.493690e-02 4.597093e-02 2.998031e-02 -6.604131e-02 2.554375e-03 5.792010e-02 -1.279861e-01 8.998414e-02 9.429823e-02 1.048837e-01 -1.177686e-01 -2.320567e-02 -3.225024e-02 7.435757e-02 2.319684e-02 4.224657e-02 -9.187724e-03 -1.355302e-01 -8.249203e-04 -8.240893e-02 1.335493e-01 1.728190e-01 1.266192e-01 1.130102e-01 8.568344e-02 9.711967e-03 5.947276e-02 1.066327e-01 1.024446e-01 9.707498e-02 7.364552e-02 -6.560402e-03 1.326583e-01 3.100350e-02 3.816312e-02 2.705403e-02 6.631016e-03 -2.300277e-02 -3.539323e-02 4.708501e-02 6.963019e-02 1.291952e-02 -5.143263e-02 2.145236e-02 1.299115e-01 5.729662e-03 4.708442e-02 4.049733e-02 1.416911e-01 1.262308e-01 1.805819e-01 1.722516e-01 1.156513e-01 8.898851e-02 1.228393e-01 2.352595e-02 6.843875e-02 1.703657e-01 1.171660e-01 4.936838e-02 -2.895624e-03 7.836948e-02 -1.609326e-02 7.618035e-02 -2.796553e-02 -3.174636e-02 -1.126225e-01 1.395050e-02 -1.494997e-02 3.711544e-02 -3.280256e-02 7.883542e-02 3.578727e-02 9.549481e-02 4.848995e-02 1.220290e-01 6.399612e-02 6.544756e-02 7.885442e-02 2.219010e-01 1.326767e-01 2.036724e-01 1.163043e-01 1.160577e-02 6.666383e-02 1.174652e-01 1.274894e-01 1.311127e-02 7.538920e-02 5.452913e-02 5.559608e-02 1.533474e-01 7.804239e-03 1.362712e-03 6.672790e-02 4.582758e-02 -3.633720e-02 4.900134e-02 7.329346e-02 -7.554564e-03 -1.019136e-02 2.319411e-02 4.744774e-02 -3.884858e-02 5.902843e-02 2.071462e-02 -2.406013e-02 3.547403e-03 1.339704e-01 8.323564e-02 -1.716719e-02 -4.767099e-02 9.576199e-02 8.674002e-02 8.071143e-02 -5.259134e-02 1.432890e-01 6.051917e-02 2.903421e-02 5.658057e-03 1.577293e-01 7.673695e-03 1.749658e-02 -7.215109e-02 -3.164097e-02 -9.020431e-02 7.391625e-02 -2.593322e-03 -3.946267e-02 -4.644734e-02 -6.863567e-02 -4.667142e-03 -8.950062e-02 -3.816731e-02 -9.787677e-02 -1.118899e-01 -8.673757e-02 -3.145852e-02 -2.145117e-02 5.535360e-02 5.233002e-02 2.362146e-03 2.905857e-02 3.906276e-02 -3.066438e-02 -1.391958e-02 -4.112729e-02 2.937977e-02 -2.166148e-03 -4.207851e-02 2.607889e-02 -1.799116e-02 4.984573e-02 -7.204130e-03 3.480753e-02 -6.486119e-02 -1.384957e-02 -1.101588e-01 -1.941065e-01 -2.255850e-01 -1.626750e-01 -8.929272e-02 -1.562566e-01 -6.861440e-02 -1.010902e-01 -6.227769e-02 -3.905931e-02 -6.440920e-02 -6.451663e-02 -5.252162e-02 -7.532530e-02 2.423285e-02 6.028793e-02 3.252783e-02 1.989596e-02 6.096719e-03 3.603992e-02 -5.253952e-02 -6.611113e-02 7.338084e-02 -1.985509e-02 3.488297e-02 7.701994e-02 6.488038e-03 -2.338854e-02 -1.407354e-01 -1.588830e-01 -1.538015e-01 -9.227125e-02 -2.036593e-01 -6.014801e-02 -1.629417e-01 -5.881812e-03 -3.023678e-02 -2.891677e-02 -1.414932e-01 -6.611580e-02 3.245236e-02 -9.029142e-02 1.772852e-02 -1.560294e-02 -5.730214e-02 9.775489e-02 1.161478e-02 5.666440e-02 -1.123327e-03 -7.751064e-02 -7.334543e-02 4.200541e-02 1.788321e-02 9.553024e-02 -2.311824e-02 -3.422063e-02 -8.957641e-02 -2.195978e-02 -1.117762e-01 -5.083418e-02 -2.837637e-02 2.563422e-02 7.733184e-02 2.763039e-02 -2.947908e-02 -3.967621e-02 -7.786322e-02 -1.121571e-01 -5.520887e-02 -1.183694e-01 -3.553968e-02 -1.278079e-01 -7.905276e-02 3.458922e-02 1.355559e-02 -5.180121e-02 3.444929e-02 -6.725253e-03 -3.152011e-02 5.681928e-02 2.239895e-02 -8.762243e-02 -2.043860e-02 7.731812e-02 -3.347271e-02 6.626557e-02 3.065266e-02 -9.981438e-03 -9.073845e-02 6.766041e-05 4.975006e-02 3.919192e-02 -3.286101e-02 3.930572e-04 -1.066039e-02 -1.036915e-01 -1.116723e-01 -1.272632e-01 -1.329480e-01 -3.645682e-02 1.238233e-02 -7.215973e-03 -9.506685e-04 6.177046e-02 -6.191923e-02 -8.212180e-03 -2.006324e-02 -2.645149e-02 -4.638863e-02 5.845455e-02 5.177949e-02 1.307130e-02 1.022708e-01 -2.895557e-02 -5.440265e-03 -6.548059e-02 9.253421e-02 -3.832026e-03 -3.858075e-02 -3.528157e-02 7.301712e-02 4.070995e-02 -2.428185e-02 -8.509068e-02 -6.754731e-02 -6.920822e-02 -6.439935e-02 -1.320992e-01 1.609059e-02 2.457389e-02 2.474432e-02 -1.881987e-02 1.828602e-03 -5.397682e-02 -2.412318e-02 1.012278e-01 -4.554583e-03 -2.005445e-02 3.518116e-02 1.417648e-02 -2.437889e-02 5.480306e-02 1.124734e-02 5.506163e-02 1.175428e-01 6.456683e-02 1.746511e-02 -1.024630e-02 1.616750e-02 -2.670835e-02 6.039731e-03 -5.414795e-02 -5.908115e-02 1.094238e-03 -6.719788e-02 -3.872817e-02 7.740430e-02 2.972631e-02 2.725192e-02 5.117821e-02 9.414489e-03 7.969693e-02 4.775660e-02 -1.184148e-01 3.869530e-02 2.054725e-02 -7.054382e-02 6.434759e-02 8.937739e-03 -1.856054e-02 -8.793190e-02 2.974431e-02 6.113421e-02 7.108231e-02 4.042811e-02 8.379817e-03 -2.474912e-02 2.321161e-02 6.467905e-02 -1.100970e-01 -8.177334e-02 -5.925317e-02 -4.860081e-02 -8.273172e-04 7.618944e-02 -2.528263e-02 -1.556213e-02 -1.944251e-02 -1.071879e-01 6.101752e-02 1.705891e-02 3.578927e-02 1.988776e-03 4.332797e-02 -1.172755e-02 2.916751e-02 -4.047362e-02 5.444405e-02 -6.961247e-02 1.946308e-02 4.052709e-04 1.430422e-02 -4.598973e-02 -5.730952e-02 -5.567737e-02 -2.400669e-02 -2.289948e-02 -6.193858e-02 -3.382315e-02 -1.138605e-01 -4.006547e-02 -2.986057e-02 9.004995e-02 7.895421e-02 6.193610e-02 3.878375e-02 -1.500346e-03 -8.530191e-02 -1.678280e-02 -2.065745e-02 -3.672481e-02 4.556799e-02 -1.260292e-02 -3.951133e-02 -8.338533e-02 6.568643e-02 4.571090e-02 -3.467438e-03 1.930191e-02 -9.141277e-03 3.181620e-02 1.462740e-02 -2.974933e-02 -3.299421e-02 -6.417356e-02 -1.672829e-02 5.767342e-02 -9.248806e-02 2.250751e-02 2.274668e-02 -3.455260e-02 -7.947484e-02 -3.051970e-02 -3.025914e-02 2.862941e-02 2.533717e-02 -1.409871e-02 2.959791e-02 -4.131767e-02 2.017590e-03 5.637484e-02 -1.616029e-02 -3.830851e-03 -6.822747e-02 -9.495928e-03 2.438892e-02 -2.397191e-02 7.372393e-02 3.319512e-02 4.390920e-03 4.794547e-02 6.226763e-02 6.308119e-02 -4.978198e-02 -3.510962e-02 1.279791e-03 -3.694135e-02 9.950195e-02 -9.478643e-02 1.024668e-02 -7.419804e-02 -5.455480e-02 6.539211e-02 -5.848082e-03 6.129187e-03 2.392403e-02 -2.380188e-02 3.001429e-02 3.071333e-02 5.239487e-04 -1.708471e-02 1.303728e-02 5.093276e-02 -6.741693e-03 -2.303675e-03 -6.347191e-02 5.049282e-02 -2.729089e-02 4.653575e-02 2.697671e-02 6.908978e-02 2.473376e-02 -4.259349e-02 1.211361e-01 6.509923e-02 3.244450e-03 -3.220925e-02 -5.290976e-02 7.874324e-02 -1.131424e-02 1.725779e-02 4.347679e-02 1.625891e-02 2.749165e-02 -5.939359e-03 3.718166e-02 5.256739e-02 -4.299689e-03 1.944741e-02 -1.220419e-02 2.194317e-02 7.910908e-02 3.200669e-02 -3.865872e-03 1.170334e-02 -4.317755e-02 -5.692119e-04 6.615097e-02 7.733500e-02 -8.413943e-02 4.407010e-02 1.468416e-02 -7.553752e-02 3.384247e-02 2.769259e-02 3.631721e-02 -6.276882e-02 -2.431358e-02 2.213475e-02 -8.063481e-02 7.547363e-02 1.821971e-02 -2.360153e-02 6.848239e-02 6.037795e-02 -2.115131e-02 -4.645508e-02 3.684797e-02 1.391007e-01 3.180122e-02 -1.722273e-03 -4.081040e-02 3.068109e-02 -4.854454e-02 4.109400e-02 1.358058e-02 8.426452e-03 -2.512470e-02 7.299402e-02 -3.580901e-02 5.677246e-02 3.451494e-02 8.640347e-02 -2.471402e-03 3.623165e-02 -1.340007e-04 -9.290426e-03 -6.073335e-02 6.069683e-03 1.128121e-01 9.124951e-02 -7.251309e-03 9.776904e-02 2.853655e-03 -4.685354e-02 -2.659973e-03 3.047189e-02 6.119499e-02 1.103763e-02 -9.393097e-03 3.142120e-02 2.030871e-02 -3.120255e-02 -2.482486e-02 3.194607e-04 -2.018786e-02 -1.751006e-02 -2.640623e-02 -3.095737e-02 6.593507e-02 -6.791061e-03 2.397227e-02 -1.077994e-02 -4.120558e-02 3.048843e-02 1.457710e-02 3.714304e-02 9.681940e-02 3.580163e-03 -1.418627e-02 -1.468825e-01 2.729364e-03 -4.869408e-02 -3.725999e-02 1.277249e-02 6.168326e-02 2.423880e-02 3.135189e-02 4.556334e-02 6.924900e-02 6.839989e-02 -1.872447e-02 -6.493229e-02 6.491517e-02 3.045033e-02 -4.602154e-04 -4.022550e-02 8.633357e-02 -4.410818e-02 2.015209e-02 -5.777395e-02 6.314586e-02 4.017737e-02 -4.215744e-02 4.201008e-03 -5.186107e-02 -1.541789e-02 -6.650539e-02 7.689872e-03 4.465696e-02 -3.899733e-02 3.016804e-04 5.199668e-02 -7.804057e-02 6.222269e-03 -1.336747e-03 6.826288e-02 -6.600543e-02 -2.930710e-03 2.517366e-02 3.759377e-02 -4.314992e-02 -9.833819e-02 -9.467784e-03 -3.547667e-02 -1.381133e-03 -4.349671e-02 -4.287871e-03 -7.176734e-02 -1.945280e-03 3.763861e-02 -2.877817e-02 -2.580537e-02 6.918497e-02 -4.193739e-02 -5.823590e-02 -8.799845e-02 -4.094958e-02 4.933679e-03 -1.120166e-02 1.121742e-01 -2.316359e-02 -2.358692e-02 9.515828e-03 7.750813e-02 2.087595e-02 -3.370803e-02 5.350789e-02 -2.818095e-02 1.205515e-02 -3.817392e-02 -1.254979e-01 -3.810566e-02 5.778169e-02 8.479697e-03 -3.404840e-02 -5.429976e-03 5.571601e-02 -6.319402e-02 3.044466e-03 4.454225e-03 4.406543e-02 -3.305411e-02 5.643229e-02 -2.708322e-02 3.535370e-02 7.777265e-02 1.178435e-01 1.216131e-01 5.628569e-03 1.242506e-01 -4.110886e-02 1.584933e-02 6.911375e-02 -3.141321e-02 3.908033e-02 5.726986e-02 8.922281e-03 -4.345572e-02 2.845713e-02 -2.200743e-02 2.354242e-02 5.212585e-03 8.930150e-02 -2.649606e-02 -1.814422e-03 -1.528361e-02 -9.302586e-03 -4.232394e-02 5.053670e-02 -4.876018e-02 -6.554312e-02 -1.916563e-02 -3.198453e-02 1.173245e-01 7.015919e-03 1.066966e-01 -4.223982e-02 -1.455259e-02 6.891035e-02 -4.062442e-02 -1.504760e-02 6.296954e-02 -3.198704e-02 -6.021241e-02 -4.158011e-02 -6.646099e-02 5.366774e-03 6.186398e-02 6.508357e-02 -1.459494e-02 8.964191e-02 -4.333105e-02 -8.625156e-02 7.737509e-02 1.394842e-02 -1.329126e-02 -1.074844e-01 5.528686e-02 2.928991e-02 -4.465413e-02 2.893628e-02 5.005721e-02 -5.487742e-02 4.619840e-02 4.943808e-02 -3.578684e-02 -1.584042e-02 -3.203553e-02 -4.629194e-02 3.502633e-02 -9.392464e-02 -4.416950e-02 4.383410e-02 2.639907e-02 -4.155889e-02 2.241391e-03 2.267787e-02 1.951592e-02 5.956309e-02 -7.965120e-02 -1.401055e-02 -7.778494e-02 7.260433e-03 -8.058615e-02 1.372125e-02 -8.761301e-02 4.031695e-03 1.238897e-01 -7.791562e-02 3.573384e-02 8.095866e-02 4.340526e-02 1.107227e-01 -3.116327e-02 8.916696e-02 4.098755e-02 4.310938e-02 2.123164e-02 9.891085e-03 -9.860076e-02 -1.617664e-02 -4.788100e-02 3.709080e-02 3.711288e-02 5.726091e-02 5.865211e-02 6.188126e-02 -4.398207e-02 3.120263e-02 9.488938e-03 1.435298e-02 -6.983881e-02 -1.340550e-03 2.545327e-02 2.926144e-02 -1.381488e-03 7.505156e-02 -9.764897e-03 -4.093137e-03 -4.098962e-02 1.006643e-01 1.109281e-02 2.823730e-02 1.017075e-02 -8.516441e-02 -3.488703e-02 -6.625007e-02 6.307698e-02 -3.966313e-02 -4.158668e-02 4.593970e-02 -6.756566e-02 2.904634e-02 1.456128e-01 1.076621e-01 5.293147e-02 8.352400e-02 1.089215e-02 1.279971e-02 -2.719500e-02 6.592871e-02 -8.348556e-02 6.960273e-02 4.378268e-02 2.221281e-02 1.394808e-01 3.217030e-02 6.448672e-02 2.889612e-02 2.381847e-02 6.156971e-02 2.510342e-02 1.203857e-02 -4.101007e-02 6.534089e-02 -1.339162e-02 4.102112e-03 -9.414372e-03 9.119636e-02 9.823902e-03 1.433083e-01 1.247971e-01 1.216353e-01 -4.142189e-02 -6.956170e-02 -7.989973e-03 -3.277351e-02 -2.690039e-02 -1.891973e-02 -4.309042e-02 4.085218e-02 1.017518e-02 1.206333e-01 -2.381340e-02 1.355892e-01 -2.029235e-02 3.833549e-02 1.600486e-01 1.557750e-01 -4.796762e-02 3.178204e-02 1.474358e-02 -1.410379e-02 1.203540e-02 -1.311948e-02 8.004961e-02 4.843353e-02 -5.237496e-02 8.008494e-03 3.888534e-02 9.214237e-03 -8.560118e-03 -2.379071e-02 6.859396e-02 7.351760e-02 1.219778e-01 -3.957582e-02 1.636637e-02 3.333868e-03 -5.691095e-02 -3.289470e-02 4.530605e-02 8.163541e-02 1.222911e-01 -3.393022e-03 1.389996e-01 5.264198e-02 -3.175601e-02 3.677123e-02 -6.489003e-03 7.708370e-02 -7.440928e-02 9.828685e-02 1.214132e-02 1.695520e-02 -7.643314e-02 2.739039e-02 4.005892e-03 8.356619e-02 2.647342e-02 -3.424222e-02 -5.496089e-02 -5.697720e-02 -6.695315e-02 2.465957e-02 -6.036149e-02 -4.562827e-02 -3.156759e-02 -2.039963e-02 2.409703e-02 7.200893e-02 5.811263e-02 -2.309472e-03 7.177046e-02 -2.682475e-02 -1.857675e-02 -8.957839e-03 8.375679e-04 5.785103e-02 1.475495e-01 1.379874e-01 -1.057390e-01 -2.768814e-02 7.896762e-03 3.541588e-02 -2.426606e-02 9.516451e-02 2.389096e-02 -3.177780e-02 -4.747642e-02 -4.019686e-02 -8.347644e-02 -1.419962e-02 6.642009e-02 -9.066833e-03 2.604956e-02 -3.235709e-02 -2.645734e-02 -8.862152e-03 -2.810922e-02 1.636148e-01 5.937457e-02 1.027662e-01 6.862985e-02 3.552144e-03 7.715511e-02 4.189396e-02 7.983144e-02 2.703880e-02 -1.345250e-02 1.578236e-02 1.206255e-01 -7.738181e-03 -3.381593e-03 -3.630691e-02 1.066062e-02 2.902666e-02 9.010802e-02 -5.440447e-02 -1.050634e-01 -2.734128e-02 -1.778129e-02 -7.935802e-02 7.435623e-02 -1.506188e-01 -3.144704e-02 -9.796786e-03 2.445151e-02 8.955112e-02 4.530430e-02 3.857187e-02 6.640463e-02 -1.417544e-02 1.505638e-02 -4.436092e-02 -8.496150e-02 -3.956011e-02 -3.366191e-02 -2.143735e-02 1.528758e-02 2.888896e-03 8.288748e-02 3.125608e-02 1.692956e-02 7.417238e-02 5.793391e-02 -4.309938e-02 1.988316e-02 -3.994283e-02 -1.256367e-03 3.526470e-02 -3.452708e-02 -2.831430e-02 -5.703240e-02 -3.166448e-03 -1.242319e-02 6.469432e-02 8.770846e-02 7.412946e-02 1.411645e-01 3.321573e-02 1.061778e-01 -7.272930e-02 5.955590e-02 -2.832713e-02 -1.081349e-01 -2.661464e-02 -1.720522e-02 5.313165e-02 -1.515666e-02 -6.050212e-02 -7.612137e-03 1.487641e-02 -4.215946e-02 6.067301e-03 -6.039820e-02 6.842755e-03 -1.661564e-03 -1.542968e-01 -1.975022e-03 -1.334455e-02 -7.368710e-02 9.282219e-02 3.895134e-03 -2.507357e-02 4.160041e-02 8.192339e-02 1.641394e-01 5.346399e-02 4.296669e-02 2.477189e-02 -2.468648e-02 1.889103e-02 -2.216345e-02 1.150639e-02 -1.116124e-02 8.634224e-02 -2.240872e-02 -4.876513e-02 -8.310534e-02 3.427917e-03 -7.327536e-03 4.248726e-02 -2.392692e-02 -7.968102e-02 3.666983e-03 -5.551286e-02 -4.742447e-02 4.135907e-02 1.419940e-02 -3.195862e-02 -6.541408e-03 -1.193606e-03 -6.735365e-03 1.111417e-01 1.283549e-01 8.534558e-02 3.897208e-03 5.128339e-02 8.915414e-03 3.526252e-02 -1.029213e-01 9.565083e-04 -3.788348e-02 -7.514140e-02 -7.159298e-02 -6.102739e-02 -5.846816e-02 1.541908e-03 4.065917e-02 -7.887258e-02 3.362433e-02 4.004188e-02 -3.794886e-02 -4.326277e-02 8.078123e-02 -2.266649e-02 4.722742e-02 3.359771e-02 2.498590e-02 -2.473789e-02 8.671879e-02 3.690629e-02 6.407648e-02 1.128624e-01 2.666788e-02 1.455033e-01 -1.705324e-04 4.994586e-03 -3.571499e-02 -9.458095e-02 -1.591194e-01 -8.427372e-02 -5.638910e-03 3.851116e-02 -4.681035e-02 1.097038e-03 6.286272e-03 1.336108e-01 -2.789556e-02 -2.647246e-02 -4.726771e-03 -5.239691e-03 -1.396185e-01 -3.871593e-02 -5.321320e-02 -3.712352e-04 -3.705416e-03 8.066034e-02 7.225989e-02 3.589113e-02 8.318262e-02 -1.002822e-02 -2.462980e-02 -2.747973e-02 3.619916e-02 1.010573e-02 2.265620e-02 -7.006163e-03 -5.262746e-03 4.888853e-02 -2.990816e-02 -2.778654e-02 7.615027e-03 7.447748e-02 2.922152e-02 -1.625453e-03 -2.509483e-02 7.183200e-03 -1.394635e-01 2.413781e-02 -4.799779e-04 -7.726819e-02 -3.000228e-02 -4.932617e-02 -8.789022e-02 4.223196e-02 -9.594025e-03 -7.020379e-02 1.114299e-01 -2.742535e-03 -4.559104e-02 4.355007e-02 6.645534e-02 -4.976023e-02 -1.714917e-01 -9.625020e-03 -1.407145e-02 -2.016785e-02 2.128224e-02 2.547006e-03 -1.442353e-02 -7.359643e-02 3.418515e-02 -1.264297e-02 8.141575e-03 5.859454e-02 4.273199e-02 9.456377e-03 -5.076211e-02 -6.061328e-02 -8.763264e-02 -6.232595e-02 2.716918e-02 -6.418852e-02 -2.695127e-02 -3.036599e-02 -5.847900e-02 -1.481948e-02 -3.822389e-02 2.877735e-02 1.311564e-01 -1.511796e-01 -3.858431e-02 -3.753633e-02 -2.270815e-02 -4.197024e-03 -4.410760e-02 1.500694e-01 -1.941915e-02 1.141896e-02 -1.110592e-02 2.695441e-02 2.682056e-02 1.564477e-02 7.145200e-02 -7.096979e-03 5.094590e-02 -7.639763e-02 4.603485e-02 2.366266e-02 2.828696e-02 5.023747e-03 -2.853882e-02 -1.360934e-01 -4.295637e-02 -2.587278e-02 -4.755199e-02 5.106444e-03 -3.384929e-02 1.325472e-02 -3.783956e-02 9.171508e-03 -5.811460e-03 -1.068595e-02 -5.755018e-02 6.568850e-02 -1.890611e-02 -6.213198e-02 6.759197e-02 -4.271272e-02 -4.496528e-02 8.159025e-03 -7.236001e-02 -3.354207e-02 -9.093771e-02 -9.592254e-02 -7.175073e-04 -1.119085e-02 6.282586e-02 9.105536e-02 1.379905e-02 2.040658e-02 -6.035445e-02 -2.233991e-02 4.499582e-03 4.967920e-02 3.117873e-02 -7.859911e-03 -8.405255e-03 -4.121121e-02 -7.043755e-02 -4.442427e-02 -3.006706e-03 1.102986e-02 -1.108364e-02 1.459313e-02 9.131887e-02 1.089281e-02 -1.548666e-02 -5.620964e-03 -1.017990e-01 2.812254e-02 1.159058e-02 1.233073e-02 -4.494196e-02 -4.080333e-02 -7.126651e-02 2.116455e-03 1.435454e-01 2.250910e-02 1.030854e-01 -4.066374e-02 7.574356e-03 5.175293e-02 6.096535e-02 -8.907155e-02 -2.433887e-02 4.947134e-02 8.312471e-02 -3.479697e-02 -4.061963e-02 -7.250346e-02 -8.150335e-03 -3.772120e-02 8.594767e-02 7.115488e-02 9.559786e-03 6.782946e-02 3.787755e-02 2.612148e-03 3.683200e-02 3.732438e-02 1.262623e-03 -3.174868e-02 -1.152340e-02 1.061864e-02 6.762301e-02 -3.186880e-02 -7.644275e-03 6.064510e-02 -2.521253e-02 4.816972e-02 -5.156381e-02 -1.737476e-02 -1.232642e-02 7.265352e-02 4.247135e-03 -6.357308e-02 -6.340572e-02 9.937325e-02 2.725538e-02 -2.290177e-02 4.240702e-02 -3.426234e-02 1.931715e-02 -3.198891e-02 6.539884e-03 -5.988369e-02 1.951559e-02 5.311169e-02 -9.157709e-03 2.970141e-02 -3.883740e-02 -1.454172e-02 6.095013e-03 3.932052e-02 3.173474e-03 -2.664002e-02 -6.198032e-02 -1.111183e-02 -6.289762e-02 3.557515e-02 -9.466122e-02 8.766335e-03 -1.658765e-02 -1.913059e-02 -4.002866e-03 3.111517e-02 1.522865e-02 -6.784122e-02 5.317199e-02 -5.182594e-02 -1.192167e-02 2.915578e-02 -5.885682e-03 -4.605781e-02 -3.734537e-02 -2.536606e-02 7.147084e-02 -7.005766e-02 4.912643e-02 -7.291146e-02 -3.571646e-02 1.464233e-02 -4.352125e-02 -2.177199e-02 -5.424152e-02 -8.921646e-02 4.655805e-02 -4.801393e-02 4.183273e-02 -1.231840e-01 4.195633e-02 -1.312258e-02 -8.368932e-03 5.064375e-02 4.026965e-02 6.194361e-02 3.999584e-02 -1.266513e-02 -2.254906e-02 -2.617062e-02 -5.803862e-02 5.108992e-02 3.961833e-02 1.109978e-02 -2.621103e-02 -5.023398e-02 -3.047876e-02 -3.195829e-02 -3.451869e-03 -1.064373e-04 -1.063706e-01 -2.511056e-02 -3.752453e-02 -2.390019e-02 -7.743254e-02 -1.577353e-02 -5.835275e-02 -5.818265e-04 -4.874220e-03 1.549817e-02 6.240946e-02 1.371006e-02 1.612730e-02 4.158219e-02 -4.527954e-02 -2.732382e-02 -1.471854e-03 -1.631270e-02 8.145251e-02 2.571781e-03 -6.422532e-02 -9.167556e-02 1.221585e-01 -1.708008e-02 2.621490e-02 3.155007e-03 4.583306e-02 -5.121999e-02 -1.563087e-01 -9.218144e-02 -5.657915e-02 -8.026022e-02 1.166526e-03 -2.779086e-02 6.055474e-02 -6.722019e-02 -1.688893e-03 -8.187389e-02 4.352287e-02 -9.897499e-02 -7.794712e-03 -2.153717e-02 -7.180764e-02 -4.677517e-02 2.099106e-02 -3.393978e-02 2.839150e-02 -2.453832e-02 8.490081e-03 -4.795030e-02 1.432038e-02 -5.788956e-02 -1.095691e-01 -2.904000e-02 2.367315e-02 -5.982038e-02 -5.260260e-02 -7.709260e-02 -2.051657e-03 -8.994486e-02 -5.558780e-02 -1.436647e-02 6.388969e-02 -2.062668e-02 3.807183e-02 -1.387853e-02 -6.400627e-03 -6.219185e-02 -2.754985e-02 -9.798429e-02 1.582542e-03 -5.344190e-02 1.630009e-03 7.070204e-03 2.868305e-02 -7.634416e-03 -3.713214e-02 8.293994e-02 3.891798e-02 -1.841389e-02 -1.040092e-01 -6.327087e-03 -7.661104e-02 -8.870414e-03 -7.196098e-02 -5.199314e-02 4.341845e-02 3.013907e-02 4.844591e-02 1.453753e-02 -5.643827e-02 3.735174e-02 -2.888591e-02 -1.197829e-02 -9.765607e-02 -5.928978e-02 -1.455346e-01 -2.448341e-02 -1.025584e-02 -9.394480e-02 -2.949879e-03 -4.454587e-02 -1.237554e-01 2.222848e-02 8.616163e-02 -5.253905e-02 2.363796e-02 -8.752303e-03 -2.643793e-02 9.829910e-02 -1.019016e-01 -5.397031e-02 -1.576806e-01 -1.314066e-01 2.448630e-03 -2.841803e-02 5.977869e-02 1.975750e-02 1.474026e-02 -5.799852e-02 -1.372798e-02 -7.118326e-02 -1.047488e-02 -3.699841e-02 -8.476904e-02 -8.659228e-02 -3.333752e-02 -1.200358e-01 1.167350e-01 4.737004e-02 2.076040e-02 8.507745e-02 -1.161160e-01 2.615756e-02 -7.041782e-02 2.465822e-02 1.196051e-02 -8.224286e-02 -1.397621e-02 -6.234117e-02 -9.138936e-02 -5.130146e-02 2.118254e-02 4.782489e-03 7.028915e-02 5.752359e-02 3.800383e-02 9.891856e-02 8.982078e-03 -4.730158e-02 2.159582e-02 8.739605e-03 -1.693026e-02 3.162071e-02 4.373955e-02 -2.452071e-02 4.080638e-02 5.200812e-02 -5.733509e-02 1.381939e-03 4.537290e-02 3.639268e-04 4.566358e-02 -4.189997e-02 -5.366881e-02 4.873485e-03 -1.643953e-01 -8.472510e-02 -4.937108e-03 -4.594019e-03 3.564545e-02 8.157722e-02 7.439220e-02 1.334480e-01 9.513782e-02 7.236588e-02 5.138014e-02 7.149537e-02 1.291179e-01 -3.180701e-02 -3.233834e-03 -3.591107e-03 2.233311e-03 1.790970e-02 9.826580e-02 3.604039e-02 -7.738748e-02 -6.095294e-02 6.663732e-03 4.840463e-04 4.283176e-03 -5.758986e-02 -3.899415e-03 -7.472491e-02 -9.270940e-02 -2.266871e-02 5.882241e-02 6.029099e-03 1.797595e-01 1.052009e-01 1.983265e-03 7.127867e-02 7.424601e-02 9.816833e-02 8.953004e-02 7.284100e-02 4.733415e-02 7.088214e-02 -7.507094e-03 8.063450e-02 4.951719e-02 3.669930e-02 2.015837e-02 1.182078e-02 6.809431e-02 6.143190e-02 4.741395e-02 2.416606e-02 7.293485e-02 7.675001e-02 7.949240e-02 4.109060e-03 7.065254e-02 2.037970e-02 9.951637e-02 1.151400e-01 1.113844e-01 1.016173e-01 6.095102e-02 2.359319e-02 6.415368e-02 1.331508e-02 1.940492e-01 7.719288e-03 3.677305e-02 1.229214e-02 5.851793e-02 -1.602419e-02 5.698612e-02 7.156496e-02 1.741173e-02 -1.575784e-02 3.493267e-02 -4.234096e-02 4.571826e-02 7.144363e-02 1.942175e-02 -8.958573e-02 -1.866306e-02 1.953465e-02 -1.235057e-02 -6.263596e-02 -2.312249e-02 9.943143e-02 6.428655e-02 -1.277540e-01 4.406721e-02 -8.837606e-03 2.386175e-02 -3.414611e-02 4.308827e-02 -2.359635e-02 -3.414465e-02 -7.385248e-02 -1.018819e-01 7.157924e-02 -5.729392e-02 -3.974407e-02 -3.348658e-03 3.592488e-02 -2.770434e-02 3.522539e-02 1.032147e-01 1.551211e-02 -1.674185e-02 9.176545e-02 -1.733082e-02 1.111057e-03 3.643960e-02 3.801611e-02 -5.973242e-02 1.283594e-01 4.029908e-02 5.604796e-02 -4.156210e-02 4.364343e-02 -5.474119e-03 2.347497e-02 -8.192529e-03 2.174498e-02 -8.272658e-02 3.385886e-02 -2.433196e-02 -3.000078e-02 1.281470e-02 -9.899396e-02 3.016236e-02 -4.237011e-02 2.053830e-02 2.641623e-02 1.530511e-01 -1.375780e-01 -1.894707e-02 1.317528e-01 -1.598212e-02 1.026363e-02 7.977662e-03 2.698935e-03 1.277179e-01 2.113981e-02 -2.591659e-02 3.897041e-02 -6.900531e-02 -4.912120e-02 -2.101306e-02 5.232959e-02 -5.675485e-02 -8.541507e-02 2.312028e-02 -6.371569e-02 -4.667200e-02 4.379812e-03 -2.029792e-02 -6.364659e-02 -1.283631e-03 -5.761530e-02 5.483718e-03 -6.514600e-02 -1.639310e-02 9.978669e-02 -4.152254e-02 -1.650097e-02 8.357321e-02 5.970454e-02 3.642159e-02 1.525192e-02 1.097401e-01 4.438913e-02 9.550038e-02 -1.866135e-02 -7.923006e-02 7.471558e-02 -6.814962e-02 -2.513923e-02 -7.859355e-04 2.698704e-02 -4.441523e-02 -3.268581e-02 -8.847301e-03 1.377343e-01 2.010618e-02 -1.893948e-03 1.241768e-02 4.836413e-02 8.796774e-02 -2.006899e-02 -3.513570e-02 -2.769409e-02 -3.859154e-02 3.802038e-02 3.759619e-02 5.828330e-02 1.006982e-01 2.223343e-02 1.135774e-01 1.003574e-01 -1.625337e-02 -6.317265e-02 -7.235528e-02 -6.579472e-02 9.634766e-03 2.367372e-02 -2.286304e-03 4.440276e-02 2.007116e-02 2.161136e-02 -2.619405e-03 1.060824e-01 8.355604e-02 -2.355538e-02 4.420504e-02 1.213658e-02 -1.228250e-02 1.755200e-02 -4.789080e-03 -1.621302e-02 -6.015605e-02 -1.740518e-02 -4.527493e-02 -1.207307e-02 7.932987e-03 8.543158e-02 1.245295e-01 9.877336e-02 -9.683658e-02 -1.541085e-01 -9.415279e-02 -9.130329e-02 -1.152851e-01 -4.799481e-02 -2.378470e-02 -4.904026e-03 -4.834491e-02 -1.505713e-02 3.060872e-02 4.246601e-02 5.993754e-02 2.713609e-02 5.669401e-03 1.092083e-01 -2.625729e-03 7.303061e-02 -5.042089e-02 2.251756e-02 -1.036005e-01 2.220130e-02 -3.066417e-02 -1.330360e-02 -1.325959e-02 8.851309e-03 -3.827265e-02 1.666330e-01 -1.144120e-01 -2.455185e-01 -6.043297e-02 -8.672914e-03 -6.996979e-02 -5.836116e-02 -9.965539e-02 -1.137503e-02 -6.256162e-02 8.909291e-02 -1.941851e-03 3.771445e-02 -4.410562e-02 -2.942148e-02 1.942879e-02 -5.367087e-02 4.077168e-02 -5.263415e-02 -3.797514e-03 -6.348001e-02 3.037916e-02 -9.513879e-02 -1.682842e-02 -1.679022e-02 -7.659089e-02 4.383657e-03 8.692000e-02 -2.900003e-02 -1.333599e-01 -2.965850e-01 -1.106211e-01 -1.259406e-01 -1.229196e-01 -7.566649e-02 -3.901747e-02 -4.875235e-02 1.182488e-02 4.601125e-02 4.042031e-02 -1.646919e-03 6.179342e-02 -4.814984e-02 -2.177504e-02 -1.510882e-01 -5.164454e-03 -3.824784e-02 3.850795e-02 -2.541972e-02 -4.395967e-02 8.849675e-02 -3.292503e-02 -5.014277e-02 -5.494883e-02 -5.803274e-02 9.897973e-02 -6.046749e-03 -6.873468e-02 -1.080058e-01 -1.567902e-01 -1.136291e-01 -1.295007e-02 -3.835359e-02 -1.930271e-02 -1.965114e-02 -5.541248e-03 7.236231e-02 3.806900e-02 5.227784e-02 -5.311375e-02 -4.956918e-02 6.295870e-02 2.298229e-02 1.249128e-02 -1.493554e-02 7.026181e-02 3.220202e-02 8.200849e-03 -2.143653e-02 -3.070837e-02 3.304043e-02 1.237074e-02 2.635338e-02 1.202050e-01 1.477082e-02 -2.389432e-02 -4.914977e-02 -6.123078e-02 -1.427441e-01 -9.879710e-02 1.489131e-02 3.912451e-02 -1.969056e-02 -2.742898e-02 -5.620596e-02 1.524408e-02 2.056641e-02 3.421936e-02 -1.971042e-02 -2.860189e-02 5.008636e-02 -6.630297e-03 -9.910424e-04 -9.176360e-02 -1.047532e-02 9.039763e-02 8.997903e-02 3.335342e-03 6.259112e-02 2.518979e-02 1.471768e-01 -7.137070e-02 3.841323e-02 -1.739703e-01 -2.000257e-02 1.020188e-02 -6.272931e-02 -4.111861e-02 -6.894757e-03 4.822359e-02 -1.288310e-01 -2.720380e-02 2.249666e-02 -1.152900e-02 -3.144617e-02 -4.449809e-02 -1.460419e-02 1.201346e-02 5.873367e-02 4.767525e-03 -5.097893e-02 2.503009e-03 6.561424e-02 -3.456000e-02 -1.065650e-02 6.123732e-02 1.326311e-02 3.312914e-02 3.732363e-02 4.298194e-02 -9.214859e-02 -7.409337e-03 -7.784533e-02 -7.967170e-02 -7.634443e-03 -5.334435e-03 1.022288e-01 1.723900e-02 -1.057755e-01 -2.941194e-02 2.617988e-02 9.520519e-03 6.326107e-02 -9.337541e-02 2.160698e-02 6.527658e-03 1.084413e-02 -9.673151e-03 -1.221576e-02 -6.632863e-02 9.057572e-02 -6.579031e-02 4.099711e-02 3.739675e-04 8.193201e-03 8.740094e-02 -1.907469e-02 3.134389e-02 -3.146315e-02 1.002043e-03 -5.734412e-02 -7.672749e-02 -5.586033e-02 3.887929e-02 5.626310e-02 5.018875e-02 9.397308e-03 2.113527e-02 4.819767e-02 1.128119e-02 1.048120e-02 -7.068220e-02 -3.121666e-02 -3.449398e-02 -4.430688e-02 1.264782e-02 9.150011e-02 6.730933e-02 2.202030e-02 -5.217169e-02 3.676328e-02 9.196003e-02 -4.235722e-02 -3.409138e-02 -1.317586e-01 -7.595064e-02 9.975547e-02 9.839482e-02 4.685387e-02 2.712087e-02 -1.785803e-02 6.025047e-02 1.332610e-02 1.197261e-01 6.145938e-02 5.760968e-02 9.391918e-03 -3.101959e-02 6.129760e-02 -1.968597e-02 -6.639992e-02 6.311841e-02 4.223719e-02 5.832350e-04 2.499268e-02 1.305547e-01 -1.183061e-01 -3.117942e-03 2.484575e-02 -1.178345e-02 -4.065612e-02 8.085627e-02 1.185299e-01 5.180014e-02 6.787113e-02 -3.223435e-02 -1.083048e-02 2.130987e-02 4.538520e-02 -1.055171e-02 7.119148e-02 2.161847e-02 4.846345e-02 8.370901e-02 3.231754e-02 -4.407522e-02 -6.146053e-02 -3.013561e-02 -4.137151e-03 -2.324542e-03 -2.139009e-02 1.492006e-02 5.422541e-03 2.865096e-02 -2.207147e-02 5.752735e-02 -1.152919e-01 1.743209e-02 4.415436e-03 3.034212e-02 9.031286e-02 4.672402e-02 1.138334e-02 -2.064783e-02 3.412169e-02 -1.090200e-02 -2.161512e-02 5.916821e-02 1.424536e-02 2.111427e-02 1.337793e-03 -4.197336e-02 -1.028134e-01 2.550262e-02 3.461907e-02 1.155975e-02 -5.410940e-02 -2.359861e-02 -2.922785e-03 -7.273332e-02 -7.343200e-03 1.019015e-02 -5.963515e-04 -5.921932e-02 -1.571896e-02 -3.449575e-02 -6.361511e-02 -6.798051e-02 -1.998177e-03 -3.321485e-02 1.046210e-01 6.139391e-03 1.732776e-02 8.779479e-03 -3.003802e-02 3.799209e-02 2.489226e-02 2.904811e-02 1.828374e-02 -9.133200e-02 2.892402e-02 -1.134969e-02 1.301973e-03 4.933586e-02 -1.434617e-02 -6.369310e-02 2.347739e-02 1.045057e-01 -6.393933e-02 1.705991e-02 -1.841690e-02 6.201126e-02 3.041610e-04 -6.410689e-02 -9.850041e-02 7.674348e-02 5.000155e-03 -2.592237e-02 -3.836063e-03 -1.552749e-03 -5.232077e-02 -2.579450e-02 1.639616e-02 -8.480445e-02 2.895684e-02 -4.268439e-02 4.669990e-03 6.869515e-02 -5.308533e-02 -2.813307e-04 2.347531e-02 4.676357e-02 -4.102538e-02 7.315872e-02 -9.794422e-02 1.183354e-02 -5.301462e-02 -8.153522e-03 3.644107e-02 -1.891243e-02 4.595086e-02 1.043214e-02 4.710180e-02 4.110486e-02 -8.044414e-02 1.088736e-01 -3.550778e-02 3.314689e-02 2.216547e-02 -7.030267e-02 -2.528497e-02 -7.804105e-02 -9.954624e-02 -3.571222e-02 -1.867602e-02 -1.491435e-02 3.315321e-03 -7.036154e-02 2.039253e-02 -6.069157e-02 -2.133551e-02 -2.791897e-02 -7.020941e-02 2.901113e-02 7.950329e-02 -1.891157e-02 2.925120e-02 -3.432966e-02 4.023471e-02 1.026257e-01 9.277212e-02 -6.617505e-03 7.197734e-02 5.468458e-02 2.138468e-02 1.123625e-01 -7.370926e-03 -2.433115e-02 4.430823e-02 -6.434305e-02 -1.015686e-01 -1.390718e-01 -1.249649e-01 -8.821009e-02 -8.808879e-02 -1.202477e-02 5.178705e-03 7.942912e-02 2.702807e-02 -1.499572e-02 5.483509e-03 1.121835e-01 1.028733e-02 3.485631e-02 3.768075e-02 -5.265173e-02 2.351473e-02 8.132836e-03 -2.577163e-02 9.340027e-02 2.664414e-02 1.892767e-02 6.714202e-03 -5.211286e-02 4.177563e-02 -3.871632e-02 -4.980621e-02 1.432322e-02 2.434932e-03 7.991602e-02 3.518932e-02 2.797219e-03 -8.199188e-02 -2.416767e-02 -4.020858e-02 3.696378e-02 -1.897372e-02 2.498478e-02 -6.698055e-03 -5.504715e-02 7.460550e-02 -2.923147e-02 7.094230e-02 -3.032349e-02 -2.324434e-02 -1.656500e-03 2.202936e-02 6.484013e-02 4.255959e-02 4.872272e-02 4.321339e-04 -1.987757e-02 8.841990e-02 3.604130e-02 6.680192e-02 1.025718e-02 1.072835e-01 -1.343963e-02 -7.148022e-02 -5.966976e-02 -1.668162e-02 -4.729675e-02 5.351500e-02 -1.782363e-01 5.735966e-02 -2.677768e-02 1.925835e-02 -1.563227e-02 2.836086e-02 5.213286e-02 5.610257e-02 -7.955722e-03 2.390939e-02 3.029783e-02 -1.462181e-02 3.252487e-02 6.842658e-02 -1.034200e-01 1.037186e-01 -2.556317e-02 1.117084e-01 6.404813e-02 -5.821217e-03 4.939123e-02 1.911347e-02 -1.024203e-01 3.127108e-02 -9.505296e-02 -1.325372e-01 5.626552e-03 -3.827874e-02 -6.595294e-02 -3.602267e-02 -9.870012e-03 -5.786578e-03 -2.376257e-02 -1.300898e-01 -2.238871e-02 -6.958191e-02 6.866046e-03 3.973937e-02 -9.095274e-03 -2.604228e-02 3.907000e-02 -9.049685e-02 5.824075e-02 6.985365e-02 7.452418e-02 5.078725e-02 6.072071e-02 7.846452e-02 3.428714e-02 -2.005571e-02 5.115266e-02 -2.550738e-02 5.593806e-02 5.738664e-02 -1.644335e-02 -5.512328e-02 7.603715e-04 -2.339197e-02 -4.721606e-02 -5.054590e-02 1.370973e-02 -6.313460e-02 -1.019234e-02 -6.776713e-02 7.223545e-02 -7.419716e-03 -3.381644e-02 -7.494034e-03 -3.539660e-04 -8.958473e-02 -2.537537e-02 8.269106e-02 7.017600e-03 4.939131e-02 1.634798e-01 3.509184e-02 9.405406e-03 9.126010e-02 1.565304e-02 -5.199084e-02 -8.181553e-02 1.643526e-02 -4.531053e-04 -3.619613e-02 -2.013813e-02 -6.872537e-02 -2.450702e-02 3.114608e-03 -9.528258e-02 -4.572429e-02 9.419834e-02 4.427596e-02 9.330844e-02 -8.371624e-02 -5.792093e-03 3.167397e-02 6.620213e-02 1.453760e-01 7.301339e-02 2.215744e-02 1.316125e-01 -8.585042e-02 -6.239862e-03 -4.566818e-02 1.167559e-01 1.023411e-01 -5.127927e-03 -8.309055e-02 -6.057608e-02 5.810093e-02 -3.364719e-02 4.022474e-02 -2.064831e-02 9.333092e-02 -6.082389e-04 -5.574902e-02 1.094858e-01 -2.136373e-02 5.914454e-02 7.448521e-02 3.340027e-02 1.231170e-01 7.401780e-02 9.095748e-02 5.171863e-02 1.769368e-02 3.147264e-02 -1.949575e-02 -6.378620e-02 1.514538e-02 -1.598242e-01 -6.011600e-02 -1.028736e-02 3.997986e-02 2.314207e-02 -4.168297e-02 5.777375e-02 9.093674e-02 9.627716e-02 7.906749e-02 7.152289e-02 1.195350e-02 1.009613e-02 -2.874797e-02 1.918861e-02 -1.965028e-02 -9.743362e-02 2.827513e-02 -7.173144e-03 1.056170e-01 5.307950e-02 7.368947e-02 -7.599249e-02 -6.362992e-02 -1.580403e-01 -1.113206e-01 -1.051723e-01 -1.099417e-01 -5.415577e-02 5.521176e-02 3.169458e-02 2.019291e-02 8.914805e-02 9.189206e-02 -8.194505e-03 8.495715e-02 6.056158e-02 -2.316607e-02 9.610986e-03 4.903825e-02 -1.221558e-02 1.424184e-02 1.382081e-02 -7.070031e-02 -1.711020e-01 -8.943600e-02 -5.049531e-02 -1.123348e-01 -1.001467e-01 -1.053148e-01 -4.940223e-02 2.793608e-03 1.097306e-02 -1.082133e-02 -1.163002e-01 -3.281721e-02 -1.450371e-01 3.299463e-02 7.572829e-02 -1.577372e-02 1.778785e-02 3.310427e-02 5.431920e-02 1.559861e-01 8.368775e-02 -1.835273e-02 -2.814505e-02 6.774443e-02 -8.067014e-02 9.538845e-03 -7.988376e-02 1.932671e-02 -5.192143e-02 1.656380e-02 -9.730488e-02 -1.173486e-01 -8.867275e-02 -1.175693e-01 1.125795e-02 2.365623e-02 -1.926025e-02 -3.039855e-02 1.106561e-02 -1.664667e-01 -9.127584e-02 -6.506581e-02 -5.972545e-02 7.845640e-02 3.482038e-02 8.094953e-02 -2.388880e-02 6.673870e-02 9.645898e-02 4.589291e-02 5.999130e-02 5.828265e-02 3.761665e-02 6.456488e-02 5.362385e-02 -2.172076e-02 -4.362840e-03 -6.223658e-02 -9.985263e-02 5.012937e-02 -5.828401e-02 2.142062e-02 -4.941867e-02 4.067225e-02 5.311073e-02 6.719195e-02 -4.710920e-03 6.524229e-03 -6.913432e-03 1.831495e-02 -5.843853e-02 4.795882e-02 3.671732e-02 -1.766315e-02 8.528605e-02 1.453327e-02 5.114241e-03 3.616740e-02 2.973805e-02 4.324644e-02 -7.099848e-03 5.585931e-02 1.978069e-02 -4.207404e-02 -2.237642e-02 7.255634e-02 -8.147082e-02 7.796664e-02 -4.126849e-02 1.095340e-01 6.827428e-02 9.172178e-02 4.901622e-02 -1.100196e-01 -6.064362e-02 -1.846111e-03 -2.141556e-02 -6.477965e-02 -6.313685e-02 -1.147060e-01 -8.429644e-02 -2.725311e-02 -3.311381e-02 1.500906e-02 -1.901013e-02 1.357481e-01 9.947033e-02 1.073250e-02 6.057440e-02 3.412090e-02 -1.022908e-02 -7.671759e-03 -1.671518e-02 7.565355e-02 6.626964e-02 -1.862965e-02 -1.557476e-02 5.201249e-02 1.149775e-01 9.469734e-02 7.648314e-02 -2.280619e-02 2.692910e-02 9.051996e-03 -1.477360e-01 -1.152002e-01 -2.065415e-01 -1.454691e-01 -1.109727e-01 -1.010139e-01 -2.494571e-02 -1.258618e-01 3.816843e-02 -4.181348e-03 9.563673e-02 -7.898333e-02 -6.718893e-02 -4.672456e-02 5.653518e-02 -8.628095e-02 -1.648592e-02 2.438085e-02 2.939920e-02 -4.926893e-02 5.085670e-02 1.101759e-01 1.045748e-01 -7.797774e-03 4.563645e-02 -1.946649e-02 5.017408e-03 8.914485e-03 -9.082502e-02 -8.075154e-02 -6.185381e-03 -2.057269e-01 -4.011804e-02 -1.395515e-03 -1.768604e-02 7.303949e-02 1.928068e-01 -1.268129e-02 6.443488e-02 3.479019e-02 -2.514977e-02 5.304265e-02 3.395759e-02 -4.768074e-02 2.988242e-02 -7.267456e-02 -4.444478e-02 -3.190046e-03 1.187216e-01 1.299467e-01 1.780191e-01 -1.976042e-02 8.328242e-02 -4.962480e-02 -8.654254e-02 4.128626e-02 2.867249e-02 9.994675e-02 6.077788e-02 -3.884016e-02 -1.082169e-01 -1.235987e-01 3.138768e-02 6.007940e-02 1.181724e-01 4.131340e-03 5.882875e-02 1.174925e-01 4.475643e-02 1.196441e-01 6.732140e-02 -3.366229e-02 -6.613606e-02 5.703858e-03 3.111493e-02 -8.494204e-04 6.924405e-02 1.147697e-02 8.249129e-02 7.029139e-02 8.247083e-02 5.719688e-03 -4.404950e-02 7.405336e-02 -6.547063e-02 -3.804488e-02 -7.225803e-02 -1.082027e-01 -3.034043e-02 -1.505477e-01 -8.113918e-02 -1.558093e-02 -9.176386e-02 -2.345607e-03 5.133950e-02 -1.019269e-02 -6.133840e-02 4.710457e-02 3.986754e-02 -5.003256e-02 4.643366e-02 -2.033302e-02 2.448878e-02 1.288195e-02 -7.078770e-02 -4.490786e-02 2.785790e-02 2.603054e-02 -1.357235e-02 9.935221e-03 -1.937848e-02 -7.318519e-02 -6.606045e-02 7.924068e-02 8.865613e-02 -1.031150e-02 -8.093836e-02 -5.505418e-02 4.576343e-02 2.694972e-02 1.177015e-01 -7.754411e-03 -2.534240e-03 2.821262e-02 5.626886e-02 -2.066279e-02 -3.188700e-02 9.259414e-03 9.721906e-03 2.320410e-03 1.288896e-01 7.415107e-02 6.296078e-02 8.826321e-02 -2.369302e-02 4.947672e-02 6.062684e-02 7.175722e-02 4.725236e-02 -7.081746e-02 -1.401630e-02 -4.374717e-02 4.062916e-02 3.775591e-02 -2.378668e-02 2.033861e-02 1.476709e-01 1.330621e-02 -3.649807e-02 -5.039842e-02 -2.852127e-02 2.028694e-02 -3.302120e-02 4.759698e-02 -2.946950e-02 -6.148867e-02 -4.628558e-02 -1.466422e-02 -5.573165e-02 1.307766e-02 5.823064e-02 1.333282e-01 1.245147e-01 6.214923e-02 1.449974e-01 9.814202e-02 -7.690335e-03 8.281279e-02 -2.003241e-02 2.042073e-01 1.344588e-03 -2.665854e-02 -2.377209e-02 9.106176e-03 -6.317810e-02 1.028941e-01 -4.316936e-02 -5.757636e-02 -3.729317e-02 2.002235e-02 6.307992e-02 1.430640e-02 9.222270e-02 5.449133e-02 -3.344071e-02 -1.109586e-01 -2.679550e-02 -7.033979e-02 -2.210851e-02 1.928496e-03 2.486272e-03 6.045049e-04 3.624430e-02 1.565001e-01 1.149297e-01 1.311141e-01 7.331856e-02 7.399322e-02 1.197562e-02 1.235170e-02 8.715755e-02 1.128649e-01 4.888563e-02 -9.154691e-02 3.937543e-02 -4.850423e-02 3.589717e-02 7.323843e-02 -5.637214e-03 -8.972601e-02 -1.474532e-02 -5.616771e-02 -2.320964e-02 -5.587454e-02 6.039194e-02 -1.270732e-01 -6.305852e-02 -8.066789e-02 -6.356504e-02 -2.632934e-02 -1.439070e-02 8.086141e-02 2.657726e-02 -5.895240e-02 3.155483e-02 1.483717e-02 6.561756e-02 -2.991320e-04 6.495479e-02 -8.334601e-02 -1.263128e-01 2.083568e-02 5.962101e-02 -3.226448e-02 2.571919e-02 -1.329625e-02 1.035778e-01 5.050922e-02 1.473895e-02 9.355936e-03 7.957976e-02 5.282571e-03 5.444926e-03 4.116582e-03 2.542931e-02 1.135476e-01 -1.581624e-02 4.121222e-02 -4.635696e-02 1.029447e-02 -9.109717e-02 5.377645e-02 3.914801e-02 5.225384e-04 -5.822599e-02 1.110857e-01 9.074752e-02 -6.067312e-02 -3.649959e-02 -3.291503e-02 -2.904261e-02 -1.836747e-02 1.194843e-02 -6.055280e-02 4.996255e-02 -4.094042e-03 -1.470308e-03 7.093467e-02 6.188376e-02 3.866065e-03 -2.083013e-02 2.176842e-02 -1.382735e-02 5.491118e-02 -6.565583e-02 -2.261451e-02 -2.172607e-02 -1.362081e-02 1.938448e-03 -2.378924e-02 -6.558987e-02 -1.784230e-03 4.659213e-02 -1.102729e-01 5.270100e-03 8.730346e-03 5.037190e-02 -2.922086e-02 8.111038e-04 3.095598e-02 -2.177015e-02 -1.411549e-02 -1.591655e-02 -6.746817e-02 2.948734e-02 2.106781e-02 3.653498e-03 -4.393002e-02 1.848597e-02 1.061876e-02 -2.766137e-02 -7.353842e-02 2.279950e-02 -1.126479e-04 3.562304e-02 -6.018921e-02 -1.267013e-01 1.697058e-02 -1.009895e-02 -6.138873e-02 -2.646684e-02 -2.030226e-02 -4.091293e-02 3.403815e-02 -8.765212e-02 -9.849337e-02 -1.130588e-01 1.724477e-02 -1.608428e-01 1.019038e-02 1.620344e-02 -6.664953e-03 4.435491e-03 3.943449e-02 -2.552593e-02 -4.076502e-04 9.663917e-02 -1.818581e-02 -1.365715e-02 3.824154e-02 1.536317e-02 -2.284048e-03 1.051908e-02 -3.182333e-02 1.386145e-03 4.575161e-02 1.422365e-02 -5.744918e-02 -4.773947e-02 -7.876509e-02 1.362887e-02 5.300969e-02 -3.152730e-02 7.408853e-02 -2.588196e-02 -8.014222e-02 -3.189907e-02 1.405165e-02 4.843521e-03 -1.830885e-03 -7.225486e-02 2.094152e-02 -2.968431e-02 -6.816643e-02 1.067162e-02 8.410500e-03 4.701310e-02 -1.170301e-02 1.274204e-01 6.108553e-02 5.371940e-02 -6.198112e-02 -9.519902e-02 -2.838729e-03 4.074903e-02 5.944379e-02 -5.352656e-02 7.693218e-02 -6.553892e-02 -3.797516e-02 -3.834342e-02 3.502344e-02 -2.077430e-02 6.235796e-02 -3.703802e-02 7.948935e-02 6.124693e-03 -2.869623e-02 -1.904879e-03 4.017990e-02 -2.952118e-02 -3.832720e-02 5.307876e-02 6.884023e-02 7.841708e-02 -3.566321e-02 5.627713e-02 9.341816e-02 -1.643981e-02 7.041220e-02 6.440764e-02 1.132925e-01 -3.744570e-02 3.376468e-03 1.162116e-01 -6.446954e-02 -4.591681e-02 -4.021071e-02 -8.593761e-02 3.546498e-02 1.203374e-01 3.235300e-02 4.621025e-02 -7.014426e-02 -1.282659e-02 -3.977507e-02 -6.178367e-02 -8.389852e-02 3.509232e-02 -4.536839e-02 4.977608e-02 5.614428e-02 5.841244e-02 5.514559e-03 1.288870e-01 9.888610e-02 1.383106e-01 1.241945e-01 4.348073e-02 7.586065e-02 2.245859e-02 6.475412e-03 1.884343e-04 1.764090e-02 1.137850e-02 -1.186087e-01 -1.239349e-02 3.504074e-02 -4.163192e-02 1.153306e-01 -4.025848e-02 2.229868e-02 6.230288e-02 6.165434e-02 2.935025e-02 1.199517e-02 3.348414e-02 -5.582223e-02 -6.931821e-04 -1.397259e-02 7.211031e-02 1.001656e-01 2.554075e-02 7.813823e-02 1.954369e-01 9.832035e-02 5.483138e-02 1.492949e-02 2.704962e-02 -1.337890e-01 4.945495e-02 2.960162e-02 -8.485578e-02 1.125305e-01 4.099672e-03 -7.449038e-02 -2.669351e-02 3.056966e-02 -3.625908e-02 3.027829e-02 -8.280786e-03 4.400041e-02 -2.141734e-03 2.672589e-02 4.882276e-02 2.919458e-02 4.477205e-02 2.393995e-02 3.015543e-02 1.331935e-01 9.342796e-02 1.522115e-01 3.109976e-02 1.484629e-01 1.672656e-01 9.304760e-02 1.516669e-02 3.166720e-02 4.563914e-02 4.618932e-02 2.810897e-02 -1.683527e-02 1.314693e-01 -6.321894e-02 3.773092e-02 -2.367256e-02 4.641976e-02 8.381031e-02 5.296538e-02 1.302125e-02 2.102127e-02 -1.300922e-02 2.918320e-03 7.384583e-02 5.054427e-03 4.676907e-02 1.247148e-01 8.038528e-02 1.904589e-02 7.238813e-02 7.062877e-02 1.070526e-01 1.298636e-01 1.350434e-01 5.000914e-02 3.989344e-02 -2.435417e-02 1.882736e-02 8.773453e-03 2.133055e-02 9.067811e-02 -2.156857e-02 5.637187e-02 -1.052939e-01 5.243727e-02 -1.571006e-02 5.293241e-02 6.310635e-02 3.111639e-02 -3.946259e-02 3.904348e-02 5.460940e-02 -3.847533e-02 3.306721e-02 5.674309e-02 -1.202095e-02 -8.082451e-02 -6.306543e-02 -5.267932e-02 -3.530668e-03 1.701199e-02 -2.292115e-02 1.024344e-01 1.110228e-01 1.355873e-01 -9.558646e-03 -5.762258e-02 1.576936e-02 4.772687e-02 -1.208859e-01 -1.746712e-02 -5.204879e-02 4.819288e-02 3.893445e-02 2.358665e-02 -5.821112e-02 4.861753e-02 -1.007946e-01 -3.853479e-02 -8.194851e-02 -1.495545e-01 -7.932594e-02 -5.775417e-02 -1.528762e-01 -1.110405e-01 -3.083630e-01 -2.382018e-01 -2.861666e-01 -1.859425e-01 -9.425639e-02 4.797623e-02 7.270641e-02 8.635897e-02 -1.198511e-01 -1.215442e-02 -6.968767e-02 3.262730e-02 -2.252342e-02 1.660882e-02 -4.347102e-02 4.526166e-02 1.530226e-02 -1.104110e-02 6.344407e-03 -3.946434e-02 -6.643559e-02 -7.140349e-02 4.034174e-02 -3.686558e-02 -5.485898e-02 -1.579491e-01 -2.199749e-01 -2.075719e-01 -2.297590e-01 -1.467171e-01 -2.173389e-01 -2.328930e-01 -5.797631e-03 -5.314928e-04 4.866794e-02 1.393615e-01 3.681753e-02 -1.656502e-01 2.751143e-02 2.206962e-02 -1.103311e-01 3.813436e-02 4.789764e-02 -5.241817e-02 1.846367e-02 3.362602e-02 -4.790723e-02 -1.848743e-02 3.952745e-02 2.425508e-02 -3.113314e-02 -7.489194e-02 -1.310025e-01 -1.528926e-01 -2.724999e-01 -1.047213e-01 -7.779345e-02 -9.755825e-02 -1.704430e-01 5.393229e-04 3.736141e-02 -1.878517e-02 -2.272614e-03 -3.946225e-02 -3.124233e-02 -6.807799e-02 2.971302e-02 -3.724300e-02 8.787977e-03 6.944926e-03 1.098516e-01 -1.380418e-02 -2.337640e-03 5.974077e-02 5.654125e-02 6.360552e-02 -4.805052e-03 -1.021176e-01 -7.733535e-02 -1.722636e-01 -1.553189e-01 -5.541340e-03 -7.915806e-02 -6.310745e-02 1.611152e-03 4.055681e-02 1.138270e-02 1.877282e-02 8.418930e-03 -2.873335e-03 5.530335e-02 